{"Conv2d 0": {"type": "Conv2d", "input_shape": [28, 28, 1], "isbias": true, "output_shape": [26, 26, 4], "parameters": 40.0, "activation": "relu", "filters": 4, "kernel_size": [3, 3, 1, 4], "stride": [1, 1], "padding": null, "weights": [[[[-0.4141760072359486, -0.09062212393304044, -0.29404403665747547, 0.34332629925094604]], [[0.22315905825023274, -0.28299887595936435, -0.07081302728815016, 0.29241858905256973]], [[-0.11777808807903653, 0.09121170695213066, 0.024398551370306405, 0.27446654342199345]]], [[[-0.2982877052317147, 0.007672180068030656, -0.0014748255877444912, 0.07702542191949457]], [[0.07195407421538161, 0.15419846953636945, 0.06591463561135327, -0.05079466300465085]], [[-0.1456896011832125, 0.14606391315531855, 0.08089672608302771, -0.37794881194531305]]], [[[0.1718219550114545, -0.14052001937399752, 0.18063189158096787, -0.13981579359123344]], [[0.15877993085233744, -0.06478599978705284, 0.15251044681471415, -0.3954309165552362]], [[-0.19467056376221936, 0.08688191928783282, 0.20205448175735166, 0.1261168561286891]]]], "biases": [[-0.2802193960258636], [-0.057160420893050214], [0.03247136774679364], [0.08860468531018369]], "name": "Conv2d 0"}, "Pool2d 1": {"type": "Pool2d", "input_shape": [26, 26, 4], "isbias": false, "output_shape": [13, 13, 4], "parameters": 0, "activation": null, "kernel_size": [2, 2], "stride": [2, 2], "kind": "max", "name": "Pool2d 1"}, "Conv2d 2": {"type": "Conv2d", "input_shape": [13, 13, 4], "isbias": true, "output_shape": [11, 11, 8], "parameters": 296.0, "activation": "relu", "filters": 8, "kernel_size": [3, 3, 4, 8], "stride": [1, 1], "padding": null, "weights": [[[[-0.0553435177273216, 0.03163446774732937, 0.05775932762255833, -0.04996913478304754, 0.011682907461621414, -0.04147606420893316, -0.03695750014668118, 0.05862737068852276], [0.05150039795201853, 0.021756739519565107, -0.011776164975621926, -0.07269517587349902, -0.14069825335792213, 0.038161652763562544, 0.0007552998268005585, -0.08566467347316882], [0.04827792580440772, -0.07592906053107926, 0.04034921526976202, 0.014124685712601288, -0.009289388399718797, 0.06497399670656588, -0.04974287717503482, 0.020486257018942303], [-0.05491395820844404, -0.038497502418483244, -0.11043234412824558, 0.007468216868509047, -0.012536207489354556, 0.01711902396746994, 0.03324661761910908, -0.0792554402882039]], [[0.01087362424884026, -0.07921671514536853, 0.015421365144737065, -0.007977705886747621, -0.03484502039128909, -0.07207229666523036, 0.027921197085982292, 0.05312905607330118], [0.023024871766249982, 0.11455661170538807, 0.11692401830724779, -0.03919520256049815, 0.0577114131307754, 0.030794197839522166, -0.03878758935621013, -0.004323170710367877], [-0.055419677032782076, 0.06905590382431537, -0.08292819883894118, 0.002520543131700327, -0.0076925713097984755, -0.07430373631404427, 0.02461172118265806, 0.060774385070504776], [0.12287846524725439, 0.11081942085747554, 0.014579830016276827, -0.0037288804135352837, -0.05282662656462542, -0.11578052051411401, -0.05465780699375034, -0.050220200969592524]], [[0.007249931268770088, -0.04167023046338271, -0.060816853205312056, 0.00796258620346224, -0.07535674102298977, 0.11824370495265055, -0.050828698356487415, 0.020798625271168804], [-0.08200038972212219, 0.0235732027904794, -0.14869993283691482, -0.021706287988556942, -0.04769089905130206, -0.05154843959504269, -0.07471230199675089, 0.11204598219494057], [0.022896394789472457, 0.06937058315652594, 0.06020313270053416, 0.04149883745509313, -0.05061070754516899, 0.029998675488599077, -0.11773558955579423, 0.005330243801835398], [0.005566969221098977, -0.01833381820303825, -0.0012039952551355965, 0.02479871313487848, -0.03868754503837113, 0.06179359816040615, 0.05643162199873687, 0.017110692966058952]]], [[[-0.021811820269884426, -0.025372138862739507, -0.058384904766916934, 0.0537189080491449, -0.10325235314165969, -0.008468704555130092, -0.03155359334601784, 0.005924684728020525], [0.008268668393741905, 0.04660925575223501, -0.019077323477818486, -0.06656212268263585, -0.050200770405761916, 0.0005195974898267569, -0.042844071667550526, 0.008536161624050093], [-0.015347463329602812, 0.040718039697499875, 0.060403265331111254, -0.04761942550923233, -0.013720689295303491, 0.005746618774650695, -0.001957015341028499, 0.0205876136353798], [0.04519961602998638, 0.0192657234413752, -0.09543461754139208, 0.06006696051637477, 0.017863787378563395, 0.03657795526894041, 0.05420408541330623, -0.010522175885301995]], [[0.0306628344984354, 0.05589921475554973, -0.08165268028493325, 0.002660303901604315, -0.027265148928797674, -0.11639317547965818, 0.002171188353389345, 0.10918777252497404], [-0.017236100084539987, -0.02739115573670057, 0.011738270609812085, 0.006488933990854558, 0.10187212984400697, 0.0836192499578732, -0.04329358984755905, 0.0037395176510268864], [0.020043048877926628, 0.0035180416120962187, -0.01765947523929023, -0.16157229217012756, 0.041367414570215616, -0.10034654050584668, 0.008417527071001001, -0.018027434129590365], [-0.11639416090838783, 0.08879394108449057, 0.03216359164920082, -0.06001979373740673, -0.046712982155819455, 0.0551433381496656, -0.12020898032193274, 0.04543015529712813]], [[0.05350221494318194, 0.061205212872126644, 0.04783658971717836, -0.012623716535718293, 0.005827758229512876, -0.058790231914644, 0.06435931486880857, 0.027938687906327624], [-0.059894422782812894, 0.01546940535800515, 0.06776728666422518, -0.022867025240177336, 0.07616357720611014, -0.09372841162163975, 0.06613745684020358, 0.053456692416638134], [-0.12743940076413218, -0.04480163028593653, 0.07231278792931073, 0.013225144153594328, -0.004416559894489922, 0.04108257792554778, -0.06895098171827269, 0.03596612124864025], [0.03423432947064426, 0.010829437721927179, -0.01605286528203292, 0.012567524966868308, -0.08108793348892175, 0.06802133494987846, 0.05828989490930644, -0.05325923957287082]]], [[[0.04230448696371725, -0.052919550062745034, -0.013811153937488847, 0.07879454313147453, 0.07494911647552131, -0.12258899472219548, 0.030961423927107126, 0.016409641219900635], [-0.07191487936862374, -0.11792450933609604, -0.028100277285850007, -0.09355594702839923, -0.04173425480930946, 0.019767440451664692, 0.020026255737551787, 0.003312396846889386], [0.1315385076653907, -0.004602190027975779, 0.07567112024919696, -0.030627837059005746, 0.14100814947934542, 0.1420856306705497, 0.00024110398167220723, -0.13542979873743263], [-0.004950402966367033, -0.032714501517993155, -0.011460338990944825, -0.018742203810421344, -0.03881471576995416, 0.0378297897065157, -0.06506396158040013, 0.0409497776397744]], [[-0.06738401733153233, 0.002044501643547235, -0.10473814736423635, -0.05350979287596584, -0.05855444552103376, -0.014745512316133625, -0.004494364120837102, -0.018718000371799038], [-0.07851474959238292, -0.007226034265289957, 0.08396698480019409, 0.005593532749449725, -0.016705380080790956, -0.09067614681262312, -0.04982941816965637, 0.017352048814032895], [0.07153293645342737, 0.020468580055006274, 0.006002410821971444, -0.003464536148582123, -0.0042038042856141124, -0.007231181734250762, -0.02770775281273527, -0.010056709176513086], [0.007427356961101857, -0.02416863386525303, -0.11368758705727271, -0.09359235113702641, -0.05341670385913994, -0.15406788029693563, 0.0027081624616649984, -0.029085253015829784]], [[-0.017656971052328288, -1.2611813444262917e-05, -0.09390295215423855, -0.11752798965857572, 0.06573619470703643, -0.0658215623440839, -0.03346594877580005, -0.028794566484491618], [0.10949374602584609, -0.022735389672799203, -0.012934995018232396, 0.08318602620662932, -0.02043175353162266, 0.030854132998143532, -0.04045235058445031, 0.11966981556336034], [0.005655688917327829, 0.02648521586947838, 0.0399501019520147, -0.08396414585248636, 0.07201295190945527, 0.0034047710210843565, 0.057948453680129304, -0.1377340028937517], [0.04502591647011596, 0.11150591920915877, -0.008682384236067318, 0.050327099242960006, -0.023924284419509008, -0.009547629130081602, -0.03655035363282511, -0.10794673381183507]]]], "biases": [[0.3106054433960007], [-0.03692535913409681], [-0.42699703451575666], [-0.1729809742835884], [0.3533551658269539], [-0.17630691951077182], [-0.2561697763416903], [0.252548758427373]], "name": "Conv2d 2"}, "Dropout 3": {"type": "Dropout", "input_shape": [11, 11, 8], "isbias": false, "output_shape": [11, 11, 8], "parameters": 0, "activation": null, "prob": 0.2, "name": "Dropout 3"}, "Flatten 4": {"type": "Flatten", "input_shape": [11, 11, 8], "isbias": false, "output_shape": 968.0, "parameters": 0, "activation": null, "name": "Flatten 4"}, "Out Layer(Dense)": {"type": "Dense", "input_shape": 968.0, "isbias": true, "output_shape": 10, "parameters": 9690.0, "activation": "softmax", "neurons": 10, "weights": [[-0.9449002370709472, -0.32549128062400656, -0.30952873001267966, 0.7815701969204445, -0.02276574506316473, 1.6573304611219224, -0.2145600634398647, 0.5241522528060326, -0.6969171044414995, 1.99268375526329], [-0.12504313299687267, 0.6465939791666434, 1.0009926945492646, 1.3082767779767701, 0.4224798773911024, -0.1986345544987117, 0.6174234710065397, 0.8594126810244852, 0.7257667797845089, 0.9156268748941672], [-0.8397346286356098, -1.1688565505040782, -1.0558535770581652, -0.5456083133593566, -0.28028194593575556, 0.855641670777485, 1.2898738823782494, 0.04452243738790011, -1.5114355368074095, -0.9741941665414654], [-0.6952098668318886, 0.8407801447786698, -0.26627595136680887, -1.021310574319703, 0.4907428061190888, -0.9028046528707844, 0.4483043320053165, -1.3048850244458243, -1.6318154262806124, 1.0269385887558737], [0.2807499485297925, -1.5122090354103308, -0.2648688105286422, 1.3104996708180916, 1.0593894805845399, -0.3355893141606816, 0.4275942156428288, -0.43193549430231365, -1.6600740580156028, 0.6141418877495244], [-0.3385182279156003, -0.3062600352748755, 0.553338804956269, -0.4021275351977779, -1.7769089441879435, 1.5916069333103149, 0.8106640546912223, 0.12578083636283655, 0.3384763353379009, -0.7901737743971479], [-0.20817696678842135, -0.1261384982659314, -0.7389451949446225, 1.6738805575024833, 0.8966255049444025, 0.5097063343776984, 0.612112612683225, 1.0268139314009332, -0.09354230376300372, 0.482369145266036], [-0.14650003586362617, -0.04141320835400631, -0.10673438439543004, -0.324993428119421, 0.8074170944030489, 0.051955634911597784, -0.26278137354525577, 1.0415067536271971, -0.8656078223505925, -0.3577167216631327], [-1.9345705767175185, -0.68522123409251, -0.8371283401970857, 0.01071202794066643, 1.034826664472803, -0.3363452635587386, 0.723588159904968, -0.17761581837591695, -2.4999735612443317, 0.17034832834830974], [-0.3896136724169828, 0.026245640833530405, -0.4846937922163434, -0.2041053623261552, -0.8128625890388474, 0.40863955654501355, 0.4772962055243684, -0.5202970908136755, 0.8117218161468779, -2.368016795883413], [-1.0003560372567668, -0.5723446811512749, -0.6077967226165607, 1.2414081726338524, 1.6503862966079912, 2.0889502460872915, 0.8780136319583939, -0.04269773179580925, 0.7191488739200544, 0.8693076225184029], [0.17026639971310295, -0.08333357548765122, 1.5936745721996795, -0.025353109950496968, -0.4694546648360622, 0.4701799795376478, 0.8373906808391622, -0.45092705293019875, -1.0388054795100552, -0.6732588088469627], [-0.20423329642354782, 1.8286938999249442, 0.6449665785458096, -0.08154456165496006, 0.04936771450911805, -0.18871950180771338, -0.9307854012552584, 0.05744018080729988, 0.7738635651875231, 0.024769412086126947], [-1.619586104827223, 0.19816180247364534, 0.7391733913253739, 1.165356920089908, 0.14935620353428883, 0.6214849282692333, 0.12196109861259083, 0.4851952759031196, -0.5945994394415776, 1.7261460234318013], [-0.05922646609398287, 0.4620924824599646, 0.8185601990859825, -1.2557849941557357, 0.027398444511516434, -1.255277626232967, 1.905104174875087, -0.44357378154250127, 0.2844790767356882, 0.6895014599189505], [-0.2794421271221043, -1.3934120415156572, -0.04276857328013458, -1.0823198499518145, -0.9388247734376447, -0.9193642300956727, -0.1243513261808998, -1.7816777175166951, -0.7773781904307662, 0.35412246996040314], [-0.6375967773122844, -1.3491472964207367, -1.3215124648796213, 0.46238671100894896, -0.8760010447586802, 1.0710096121295396, -0.6023062636827415, 1.3016625053722664, -0.773582953654306, -1.185737540242893], [1.0008394718937834, 0.2497031188923525, 0.2932087738387119, -3.219769595871665, -1.3114409275621117, -0.30489464635067665, -0.7131354505613002, -0.5220020409020324, 0.35030140205189453, -0.9227058333673148], [1.268792607788989, -1.7697691827853208, 0.4394773623942231, -1.074418486976785, -0.6082693398883506, -0.23238468075585228, -0.3256084202696792, 0.14994388451438131, -1.6165904076429447, -0.7682193059796155], [-0.6203383311917344, 0.07084203459066153, 0.4345697067390791, -1.7054751720358419, -0.8361477675139195, 0.5796194066138253, -0.47699104342377846, -1.1496123178116957, 0.4579395697394113, -0.16269844037981498], [-2.17537708206838, -0.0897122004075236, 0.12591138341367364, 0.7543649216234567, -0.21099238262640174, 0.8857378309796898, -0.7209544337956719, -1.5510747731855539, -0.30458144668710985, 0.10530970857981468], [-0.43254614032654987, -0.0617518123362065, -0.3509003681740903, 0.4880340279599541, -0.05018321023956849, -0.13134410309601896, -1.693621584605806, -0.8272033967078819, 1.235069454037052, -0.3327290731314298], [-1.4548335356404232, -0.5835672186746228, -0.8253631294090606, 0.31886372953235087, 0.20820181492861178, -0.15844752850479876, 0.30581157900508116, -0.29754586786257353, 1.5256660420592971, 0.22474791651773976], [0.258001736896115, 1.6985058943715956, -0.7484229429785069, 0.9563000586946908, -0.5871974214583331, -0.27846952692453714, 2.0617990363993575, -0.7734544139649774, 0.9071369797745042, -0.21454725468336927], [1.649846462167079, -1.2305002491333537, 0.04610057890510658, 0.3088740608419551, 1.5828556402063132, -0.18793486804075246, -1.4446040383050585, -0.7571346678401272, 0.6077351621159648, 0.32477793215430245], [-0.5222522629875906, -0.9356876590109129, -1.8893221449408295, -0.13778055729241567, -1.0441288685845616, 0.4584206898270179, -0.30051699794181086, -0.899117017442364, -0.5418616278605071, 0.31516495081349366], [1.643657261407551, 0.9210122456806166, -0.767581462687203, 1.5798378129751576, 1.4405669574746744, 0.38883604962065077, 0.20317235489797228, 0.41916348293160405, 1.8109257344480159, -0.0795056756850544], [-0.948748980535443, 0.27304129840387775, 0.6165911247975174, 0.2203703618012569, -1.1369826559516607, -0.7268690445800652, 0.37396943731632404, 1.5906788053810346, -1.0647989586745819, -0.5719437140287239], [-0.9951277199150323, -0.30062751357926165, 0.7208271292034956, 0.10429389208301623, 0.2612732694437803, -0.6074139286574489, -0.7316294397039939, 0.3235449035280284, 0.32786293531740324, -0.1858808896077478], [1.5335717809839307, -0.3285958752025854, 0.7534099041630001, -0.6691901909642181, -2.305605883129318, -0.15341743808415972, 0.21407177953332251, 1.2028334208490248, -0.8395651894353685, -0.7150421547391062], [0.21242623790102147, -1.2736307890298808, -0.08332725671921513, -0.62133821766207, -1.2406951719696946, 0.8606151820965252, 0.5092657208310056, -1.196133504767469, -0.64515863215795, 0.047673583936288746], [0.10840691323956474, 0.20726727414857335, -1.2262447784498678, -1.9346698106297149, -1.196263714078573, -0.06911461668237061, -1.0082900786971114, -1.7200897440232816, -0.7317900816245209, -0.48093336376016127], [-1.381713224916761, 0.4876515885135556, 0.8403072491042672, -0.36559029111878066, 0.6775209723270532, 0.5792149316209021, -0.3455745622182552, -0.0436477144184907, 0.6453805432067878, 0.6521063611956451], [0.13655128732764205, 0.6241431865869663, 1.281696502276803, -1.9184866896922852, -0.9027790267014938, -0.22095538794750158, 0.3006573854144709, -2.063008948063323, 0.2812136606930639, -0.3037408171485746], [-1.1856616455173663, -0.3157495367013267, -0.41238776321802073, -0.3330311272641769, 0.7464996272057426, 0.3455971340405581, -0.83864577614732, 0.29401948126769994, 1.2476227269042914, 0.3454913246492938], [0.5393350655908956, 1.0294830341575592, 0.34508094203211326, 2.0961980273043337, -0.9397738235789131, -0.29175227672385473, -2.5518825226398865, 1.3687990285780023, 0.1302109002483813, -1.0104240408757388], [-0.3706885554190168, 0.46483235866798966, 0.5169871444312275, -0.7239542981218141, -0.6213325976205575, -0.7768901327804126, 0.17004439824006456, -0.7156473074047346, -0.9605748690120359, -0.9712852097900201], [-0.03188689179032635, 1.3912700975845047, 0.36664581637769544, 0.0017896430338794579, -0.2782805687380444, 1.374044800383794, -0.8150010493686882, -0.10373460489187433, -1.3252907209042508, -1.8937393352873735], [0.3617995993583928, -0.8967729752452995, 0.6288449177746919, -0.8657243502768247, -0.6004204287081116, 0.4432462187749487, -1.325183387151669, -0.6206925182262896, 1.2656505813245746, 0.19480915355871442], [-1.8606544302697143, -0.7513580892737535, -1.060427780405665, -1.0445362929589108, -1.0759031668180168, -2.236447327080453, -1.6601493949370973, -1.0459327204869462, -0.10184019998360977, 1.5394718610427798], [0.5129574380953583, 0.1876181669049536, 0.526259199821706, -0.33871858041142966, -0.773590456504931, 0.8393233865587786, -0.8956202070807927, 2.0018588322061217, 0.9358944006708663, -2.002671228713482], [0.15787375573358778, -0.60255492183911, -0.5507352014135518, 0.1295451556820391, 0.019682001581312645, -0.46812658079215136, 0.841848073635406, -0.2064727119783731, -0.8236636685808286, 1.0526855121099676], [-0.945263482662279, -0.036411689946884734, 0.8319840161045712, 1.1185203563714068, 1.6310081289640248, -0.8861584116603749, 0.11044584819387958, 1.1267992207497637, -0.08893168666127885, 1.006308968960777], [1.2803492229956104, -0.4528101361752795, -0.10514611251741621, -0.8954601973528395, 1.3189426792752401, 1.2333342501400701, -0.05870328174314447, 0.31264277962560855, -0.8591606443206983, 0.3633156202103414], [0.6410553689527948, -1.365369743898188, -0.2819605480825275, 0.49131421399800324, -0.7161448679864478, -1.9761945277690673, 0.05984259737900538, -1.1317767128693499, -1.8968727058960426, 0.3122490359478814], [0.6273535100945852, 0.014714950213618747, -1.2452559482416006, 0.2238618276046431, -0.09203381243380741, 0.0618911749912016, -1.610896937914645, -1.5524928142595475, -0.11950601480308963, 0.19303880079185606], [-1.2116557922800124, -1.4120193326341595, 0.4216642800753639, 0.9061277891855949, 1.2763034688974684, -0.42331998209929794, 0.5093273006538762, -1.5426860130941111, -0.39223879423701863, 0.6567024924075058], [-0.9838408644999651, -0.4795981260924671, -0.9338881488736559, -0.8182509233358788, 0.15486789118636168, -1.054215214591698, -1.7133794471013981, -1.5678699474107074, 0.5383845632180977, -1.2188916948136013], [-0.35032924892111084, 0.7561069027194153, 1.7508064061054696, 0.7014268451045539, 0.40264074610300665, -0.928475163926983, 1.7170874728958392, 0.013637409585889304, 0.7216585220947106, -0.6442094650746704], [-2.2637279270363195, -0.22005960506507488, -1.9246939138781802, -1.445102261491857, -1.0489697621159397, -0.95575393547496, -0.632866966633855, -1.5599526993104877, -1.4239905328236389, 0.29375900358034857], [2.7190173256438475, 0.5466916329072208, 0.8573071995348182, 0.8589199280035371, 1.4529862209855278, -0.6348652321512879, 2.2485627105068833, 0.3968937148696884, -0.5291512174476993, 1.9244726494944018], [-1.627490696973568, -0.5617872162824019, -1.2049448960156208, 0.26925234014822086, -2.860171704887711, -0.19912387874017445, -0.7069147424697672, -1.403757909203157, 0.9814144060821717, 0.015302049849051574], [0.9625843796157082, 1.2991054833945244, 0.5341414078774323, 0.5425510900353174, 1.000066688377077, 0.2670863312992917, 1.1417384079333455, 0.15287273207471946, 0.5512303659992581, -0.8711754016382], [-0.9281539418934683, 0.23528877876178228, 0.336246456977906, 2.688933420212824, 0.07920469218086208, -0.6415291297636447, 3.077944720953251, -1.0655607189999499, 0.04999201144465324, -1.6422011285759957], [-0.8928094714272035, -0.10144091940343901, -0.08199881636424944, -1.6165684587642655, 1.4564400092180734, 0.7807296052013146, -0.825408529539205, -1.8682352293327062, 0.764651870883577, 0.2838605551833243], [0.5021563375401024, 0.6247788554166526, 0.4622688701250298, -1.1938380794854386, 0.5141822144564696, -2.5419641216412696, -0.018147425631387912, 0.38550868566305396, 1.1458269795780587, -1.4986403992483681], [-0.3407415227156814, -1.6284321669847965, -0.770153980196352, -1.1147150840618607, -0.40216154726113695, -0.4496415045917378, 0.373553398545965, -1.142835557899111, -0.08924580278784554, 0.789335458958235], [-0.7438064134217496, 1.363064766179205, 0.479814690963615, -1.434637173701162, -0.1626522516299005, 0.4706147784261926, 0.9836252643839054, 1.9319001802456555, -0.07519809131985455, 0.4832919858144678], [-0.42070272289203126, 1.3517930470408048, -0.7455424008504395, -0.26006648257106574, -0.4579296102732369, 0.5352931147318633, -0.7396970845467088, 1.1171798932098305, -1.2717679789559921, -1.495155197217776], [0.30624477571987446, -0.35034927549705935, -1.7723941894869608, 1.707309948825821, 0.8478894257586296, 0.9856482800123485, 1.2095714674661917, -0.40561819955156425, 0.43334758950628527, 0.8257160318447868], [1.4790870130370568, 1.0712767696597414, 0.03613107896895511, -0.33741711584482614, -0.5756430300498008, -1.2410787085693136, 0.4252761343208834, 0.5347899671914201, -0.20642768364720435, -0.7516580953773547], [-0.08194665660933864, -1.4705217174229028, -1.4095990566689693, -0.9954720713795173, -2.2244680709821756, 0.586880441192937, -0.7064465959364337, -0.6394075038244169, -1.0992128076901382, 0.00857057942028882], [-0.4365180159233762, -0.7559342033353851, 1.3101612270966156, 0.0888702376344481, -0.6508756192702139, 1.9173398337569878, 0.28223790045299085, 1.1695858074347736, -1.5906100659796887, 0.9253247427221067], [-0.5438088021309847, -1.267594074589847, -0.1481093524917444, 0.22235180208249808, -0.33104007654986195, 0.01412676430731257, -0.7919468318670363, -0.369730711253095, 0.3339544788845346, -0.581998727210971], [-0.13381961305695933, 0.2918690370912852, 0.11516151395933741, -0.22043616904920546, 2.343950306521264, 1.0690893625815763, -0.6348524347075243, 1.1588147494513472, -0.8019721535027379, -0.18953864829762254], [0.29253363703867, -0.8115968390753104, 0.05685127811639988, 0.74236010704179, 1.3555885232152352, -1.5679394068602628, -0.3401555217783036, -0.5292821099949172, 0.9472223446074416, -0.6708874469407711], [0.9255764993999732, 0.5304832694235112, -0.46988137558294446, -0.132916291262557, -0.39211437109113956, 0.48407838059287145, 0.8330996071777842, 0.1432824778453127, 1.6958427745486975, 1.4446698418322312], [0.09369613941603204, -0.8289960291615953, -0.012511746527160566, -0.4200772261952515, -0.9742966178575786, -1.346770721438029, -0.49179004882062516, 1.077609259386629, -1.543747966631245, 1.343838153860385], [0.44370255399039804, -1.2454610572727578, -0.712140905685316, 0.5937370554347191, 0.8113498252751036, -0.7215453969792747, -1.0792095834013726, -0.004225370971884364, -0.3346249246898942, 0.7613195883774799], [-1.1686453629255105, 0.7359212714908446, -0.9105330769980785, -0.6961740997098504, -1.5634553565441953, 0.8931830960400796, -0.6665371819542085, 0.31477013548784283, 0.7266745177823292, -0.6483998205596251], [-0.13640611519465023, 1.3575123144599268, -0.6628706250654166, -1.342106355884837, 0.26722267174639797, 1.2103907605633804, 1.3819892343672138, 2.4570174099779463, -0.7321911351773813, -1.1112570036685048], [-1.2592348022205075, 0.5123308501804621, 0.23063616014454735, 1.3565232812520023, 1.979769858096618, 0.3816956992777236, 0.18114348561985283, 1.2949797157990326, -2.447141795601692, -1.1199218538197209], [-0.4033925240956495, -0.8612253606666658, 0.506201316613296, -0.20896631183090142, 0.015471367877279662, 0.157634475883875, -1.0933519989874794, -1.4329602994146824, 1.5600989407142953, -1.219753056067023], [-0.6786449833786643, -0.6869704233131468, -1.5077062575957534, 0.17046271961492135, 0.637971295688506, 0.5669906747135426, 0.17268557162862708, -0.694987668189994, 0.683940060575966, -1.0798506169285387], [-0.4002992123752327, -0.4294886949645011, 0.7627364078986986, -0.6929735441228413, 0.5887612328728297, 0.5772156896052769, 0.17520486631085413, -0.3158292216054175, 1.142547583538132, 2.4969367151239523], [-0.03612122684665076, 0.6950662076716694, -0.4639547918984261, -0.178383485630135, -0.9133238624479898, -0.23197347167590074, 1.7824144997736286, 1.0699622458838463, 0.07931910098278787, -0.2577718249018598], [1.469422828120368, 0.25334842928723417, -0.7258971595138842, -1.173346458037585, 0.08008912634489714, 1.9257919233939615, -0.4940630360798738, -0.6629904547112878, 0.41287807714905617, -0.3924715942331219], [-0.5197174965843043, -0.4817642128509287, -0.7210210766982019, -1.5065439305950468, 1.3518224235881595, 0.8747653995359156, 0.8587382693085643, 1.0205868447156599, -1.8673867275456133, 0.649594368756161], [1.5915738867123934, 0.6445308838392044, -2.0455240989261485, 0.5689978696075866, 0.861523346929572, -0.40921316610132336, 1.4728160815212727, -0.40383186541883553, 0.48340668425539096, -1.891744189677758], [-2.1725018801559193, -0.5667501389302035, -0.3622495273262393, -0.5301608020258705, -0.36099054025038047, -0.5457375623952465, -0.7806789524552958, 0.4347614073840665, 0.5547239981299138, 0.8132542920184883], [1.3361396520475302, -0.4788024328733694, -0.14609787410858585, -1.0256602260368517, -0.6527450191416337, 0.37213266454500565, -1.3978792638355422, -0.31753876372529316, 0.9892147124065137, 0.40026931292237966], [1.2042324508631157, 0.9233517093725204, -0.8295217681403969, 0.044080743493602456, 1.108778063729444, 0.9127284540939671, -1.0099414765460073, -0.5345430131908252, -1.3480747266770075, -1.8796837649977733], [-0.9560555795034517, -1.3653858078314542, -0.4172070180831954, -1.3442945115522744, -0.04744316543127869, -0.6343448753354259, -2.320980375880535, -1.3241602068535618, -0.813640608358582, -1.8619724042396626], [0.2059448198693027, -1.1845006757578613, -0.09114790364788444, -0.19238840342879227, 0.6612395662877013, 1.2318625175027043, 0.44329266916891225, -0.5817924986804175, 1.5283878857028144, 0.2916076036569711], [0.03628998325181762, 1.1794185576978424, 1.404315251333795, -0.5536384021008591, -0.10749538131104194, 0.7485004434987548, -2.4499480845972794, -0.5284408505454039, 1.8598626416689985, 0.4448385912372868], [1.457420845158024, -0.003906075667227132, 0.5291992302643659, 0.3114455133693751, 0.8110352612189508, 0.6869125192127641, 1.2370817894655155, 0.028912419087304894, -0.0649570282780569, -0.5255367290290869], [0.15181254026808896, 1.5543341758450822, 0.5501518279635433, 1.0956965914629315, -0.09660706932191812, -1.444039041987111, -1.4047087763541393, -0.3825099609318221, 0.0325996707431374, -0.7303826218608804], [0.08994850887644341, 0.9348121081211581, -0.6269456214251231, -1.8844752580743633, -0.6128237408540037, 1.7125818857444168, 0.201421265555116, -0.8737073059007083, 2.226240002463106, -1.0021722228968362], [-0.17429629061277122, -1.700574026603255, -1.1773550521959733, 1.1212747920145394, -0.4668937742490104, -0.896005531480657, 0.9215492161599383, -0.4947368899932137, -0.9628818642644601, 1.6020898909059706], [1.1565942028901186, -0.8201405886715472, 0.5260825950063819, -0.951973844350862, 1.5705660176539524, -0.6586208908292597, 0.13597552152103753, 0.2120832901356041, 0.8427890984064603, 0.5028433176048356], [0.3489873977538872, -1.477168691823293, 0.45069213674371916, 0.24672363639001205, -1.3958370498647732, 1.4015686916720858, -1.2550348467768906, 1.25931729584071, 1.5074887261914505, 0.07405286648913834], [0.9118661386699493, -1.1501716150219132, 1.1301506368733052, 1.1935354771970246, -0.70682402426357, 1.2221905778305693, -0.8460636072726982, -0.3521857120463389, -1.7813556345103032, -0.5165898167865619], [0.48913240313186196, -2.1063587795653804, 0.496406515094836, -0.47202353357184934, -0.23517917296812477, 1.2161492100153244, -2.424961080580302, 0.04284524361670516, -0.014933438515639724, -1.272588910285763], [0.03449231244247759, 0.7456611839511293, -0.19300406719022767, 0.38261882971324696, 0.5360485215260614, -0.3635238987684738, -0.3418878466195404, -0.14791965157142967, 1.2962974206264202, -0.8705988824595288], [-0.5781037761462146, -0.7665840256902232, 1.169171239941708, -1.8212532946376292, -0.5571013330705552, 0.5741929718601869, -0.7103685070965224, 0.4918066704520078, 0.8027336535122921, 0.719861861607462], [-0.6825518199882431, 0.5744842433503476, 0.03284948794640948, -0.9828030981004114, -0.19759338113836744, 0.6558822856066701, 0.23355540989931184, 1.5695807765103629, 0.8021265335226776, -1.9814761519642452], [0.4374125165170987, 0.17574475637388112, 0.4860129206135137, -0.217008047546166, 0.94904926052586, 0.5330215447479439, -0.6500344919012436, 0.6774211904496701, 0.30749461706071446, -1.1771330654348213], [1.620523272172693, -1.0843258635414241, -1.2973183025744308, 1.6724379092763846, -2.4092122899972614, -1.5613269177700837, -0.16793436326638433, -0.10666717641810167, 0.864800322822783, -0.6601577822620992], [-0.9224783346239915, -0.8554505444655786, -0.4760423021113487, -0.6963583564121214, -1.867845448699524, -1.1508510543017247, 1.8090708633104704, -1.381860332425766, -0.811170579298739, 0.2806723150678531], [0.533710624773253, -0.4985022286738195, -0.013151949226047349, -0.5263293319663044, 3.7001831146428055, -1.8293084272291882, -1.3063087175754216, 0.040239415536199245, -1.2562983656685753, -0.6884553251962631], [-0.7080973587492481, -1.0476980076587052, -0.37538408507806675, 1.339656216832376, -0.07504253574899633, 0.9562256203813101, -0.7010143472377367, 1.5050105634605153, -0.28070479548949334, 0.966076641114922], [-1.1126811134302899, -1.4135580341522975, -0.7130825185388414, 0.6280718991555655, -0.29641617741189263, -0.5122551996617151, -0.1958544772409812, 0.6994877578015919, -1.1264754765979417, 1.179960632886533], [0.8259148814460805, -1.2369702852463875, 1.7671081090303835, 0.5498736286552127, -0.015379266345488219, -0.9205952554982462, 0.23780565583376273, 1.6411219880076557, 1.1661713360736012, -0.6179879364947679], [0.7848968756717785, -0.3031675653916147, -1.7049601653454778, -0.1079492910550655, -0.2672467590512368, 0.4852828696007484, -1.3745990526073288, 1.8168452638567023, -1.3556440120305009, -0.7893393770675036], [-1.7532809197425288, 2.0646227443258014, -1.3181823399176047, -0.7587918686533175, -0.18383959191233246, 0.14319925401947076, -0.6163476435725217, 0.2416217498076982, 0.663049256081219, 1.1057691481197138], [-0.11543381537007052, -0.5588624628166644, -0.46368814821076054, 1.4409766372790145, -0.9792854885534452, 0.9617667913915422, 0.3868691336042308, -0.9312212993324437, -0.286660094795409, -1.829052585246578], [0.09677534410929138, -0.22985233042810518, 0.017621533757865057, 0.3901293351020942, -0.5731223942098035, -0.04826824198923443, 1.6065452829582094, 0.10682316123349697, 0.10131804300396932, -0.519734663145825], [-0.5560893804168282, -1.0705179248176262, 0.19447266534536775, -1.5641783357411334, -0.4681565060319621, 0.4908622603277553, 0.25809680647836103, 0.267498809333295, 0.43552269591335435, 1.0456070684244725], [0.4238031274766093, 0.010830758160827469, -0.6283943930370747, 0.14287269401481523, 0.515132208321407, 0.9962014851224845, -1.8043451301782898, -0.5229691979393032, 0.13746403595614953, 2.378583916600604], [0.002021043833186271, -0.7158409514585022, -1.4438204012345084, -0.14955720015019203, -0.617904713020207, 0.19786349062248826, 0.851728651765232, -0.7731987838539865, 0.9124857211429496, 1.6213872932012485], [-0.3932192544134284, -0.5825932141084669, 0.5648288927032203, 3.0606030020747763, -0.04326970859039424, -0.36293673110678465, 0.5691798234276164, 0.7752954176298474, 0.9411649404062131, 1.4680117212573254], [-0.6710971782145402, 0.7305276857651641, -0.11940656203952542, -0.7815565574850323, -0.1879460034948845, 0.24815213299588085, 1.353158268087964, 2.1364526217794424, -0.14234807282657388, -0.5178392139749095], [-0.2563211678026699, -2.595628724022851, -1.0368562027793566, -1.1039211027508848, -1.752907046100056, 0.07974001971581673, -0.6097137685556986, 1.3482041262125983, -1.2572354237599417, 0.46236039351848895], [0.2952350930012607, -0.38055563521244423, -0.9969078317092682, -1.4455750543057395, -0.4776020895357087, 0.6499921178910596, 0.4363165368136426, 0.8921651499510994, -0.6956634913755602, 0.5757826501616081], [0.10773017906981806, 0.22957771713035768, -0.5845872953786561, -2.111456218782604, 0.1877196175418201, -1.2197043212584444, -0.2589030432246325, -1.286727713790463, 1.9438524993197435, 1.4352783683859938], [0.7373710407907846, -0.01422264907712872, -0.4557909853635144, -0.8519256207201099, 0.22646602623159082, -0.09497205528208415, -0.5055331498594217, 0.31481071743665057, 1.3751457373881386, 2.014463311004381], [-2.4407945624479233, -0.32720583635801626, -0.726404757925453, -0.25590853227084376, -0.8808485136300395, 1.6066998023349734, -0.35053250312252215, 0.5394521216965971, -0.07313603298472714, 0.728152542848067], [-0.03812354668700392, -0.631784435343537, -0.6950534539933656, -1.1777303283435188, -0.2124834786625291, -0.4085797731367121, -0.6073910857595981, 2.441677501942976, 0.43874779200411707, -0.5346328299737932], [0.5010249612290277, -0.7559924636568123, -0.5635135991856337, 0.2665153766905374, -2.0377175313744296, -0.7829364612493086, 0.28897136995160705, 1.3148997274762402, -0.537213462502705, -0.006799508393476594], [0.5679393431889861, -1.8459660156955355, 0.9339600835816758, -1.3016276942695404, 0.34125907673505695, 0.8660209575990195, -2.099906364223959, -1.0782405029709723, 0.25460442650651877, 0.04934651269035329], [-0.8397881435651291, 1.0366408692670797, -1.058530530689315, -0.9173737125552082, -1.4676407597030146, 0.1290952817839736, -0.3458638582176037, -0.48282199535713227, 1.9415245303360713, 2.0684950686802535], [0.7947760148037922, 0.010069449212494338, -0.9794334859725926, -0.7336729532382492, -0.5074437119029491, -0.7075785165877104, -0.4094587525445288, -1.3720871798343375, 0.25679372346546764, -1.8886612398707634], [0.2984298003418151, 0.6868121515167017, -0.555751286892243, -0.48052004734131154, -1.0677160453443075, 0.24646528702119466, 1.8159506252948636, -1.0851296000519701, 0.7159234289007643, 0.48673712878132686], [1.4363152880389605, -0.007530475434141951, -0.19683006459437347, 0.5012846497954856, 0.8121942014047779, -1.5755293267985697, -0.7862897486050584, -0.42072032722806224, -1.569718934502615, -0.09739889565005369], [-0.04063378334977405, -0.6687539778267412, -2.093574102585253, 0.3298396786872506, 0.825635950786351, 0.28041562129980685, -0.7540989453127426, 0.7661236168826435, -0.5523497953929241, 1.0656173115862928], [0.40447009186320565, 0.767875906497891, -1.0408637966046468, -0.8869440692876648, -1.9666785359062526, -0.4362976580870614, -0.749537679326376, 1.9042160152890197, 0.0018963430694009646, 1.0460439555934764], [-0.2013730512310824, 0.5965555716155067, -0.24154729329457458, -0.2496626059830708, -1.8198741810455579, -1.88666146259655, 1.4172043839123685, 1.7518679785845799, -0.3355024639778791, -2.176384505564361], [1.0514138181231987, 2.3042417158660164, -0.7168528007706683, -0.6040328683332569, -0.6891580601889983, -0.3225716243471877, -1.8351613918872667, -0.24399398354492657, 0.0909838045727941, 1.4815746916342736], [-0.9306695755974815, 0.12646746557043675, -1.3693368031054272, -1.4397052865276334, 0.839148054852639, -0.5893981031003814, 0.6378102879916848, -2.568421327603713, 1.9134021542795088, 0.8404109620850585], [-2.913288384631789, 0.5280832783917049, 1.0962381834588928, -1.1477949778923386, 1.3106723510836855, 1.5126870314677445, -0.08655673223166309, -1.174621841070224, 0.3899170923486581, -0.7936532112765043], [-0.6991482008696082, -0.8098197410187514, -0.16118653043624867, 1.792957625169358, -2.206231251707213, -0.39404537981907395, 0.44381027121980055, -0.2622930118916548, 1.253418617106733, -0.3182702083477287], [0.8480958262644156, -0.7192353627429516, 0.3142923753833861, 0.5128960786609338, -0.4531314059167298, -0.22435900925078706, -1.0447577163289108, 0.8969986134745274, -0.362053795025681, -0.45750189312745176], [0.825391125242986, 0.1219855609695575, 0.04533639661360635, -0.11791966527564458, 0.24250725009399451, -2.458125566895489, -1.7112936037949302, 0.9465874046988646, 0.31596020855174417, -0.8365546868641499], [1.2991759910245038, -1.3675606976695693, -0.681676119333895, -1.5092045717810674, -0.20784934401069477, -0.607372777035437, -1.0435065345476577, 0.08320538820930859, 0.25995254748265684, -0.49524902348161476], [-0.27219334709894505, -1.129844710776012, 1.3233935211691532, -0.4028738203862904, -1.206260295669118, 0.884167659897459, -0.674770042917632, 0.42928725431592324, -0.5283467284144459, 1.5424662426519873], [-1.3666553378931974, 0.43039839431404237, -0.08318632442276458, 1.6776778202394764, -0.13279455646932117, 0.06704799444638626, -0.03194858066525271, -0.5171711416239291, 0.9134727959412999, -0.48744164049062577], [0.07237328790454471, 0.6364782203704444, -0.22274369389109938, -0.43742542440799087, -0.28164893173789857, -2.5216800195858244, 1.0357810364242515, 0.9095904097832892, -0.08496301598711409, 0.03486875321266367], [-0.5025183541350252, -0.6012364142503278, 0.45183357412199465, 0.7777280634694591, -0.14917799230850137, -1.3240927901353818, 0.11746526313837877, -0.21351188428916065, -0.14761309603622594, 0.5277248059025162], [1.3740009671154085, 0.470355741384801, -1.3026660601541467, -0.6034074585684858, -0.0661450787082672, 0.018677949688307986, 0.7478263881879922, 0.02497649955032621, -1.3989305970181112, 0.14473674812092013], [-0.7285518564044621, 1.6743771531907157, -0.018273210970461338, -0.4731153109022785, -0.17379658317393779, 0.2887781930639181, 1.6513068768109238, -1.2518099320659397, 0.15533882356235557, -0.5790559511566923], [-1.2801760832406852, -1.3524003554501953, 0.11316123180255352, -0.4525519993405111, -0.6067960361677015, 1.4164846798768236, -1.6240432227723545, -0.590808093343792, 0.2617401402076698, 0.44248547841461217], [-1.4147618094528305, 0.02080557825691756, -0.5981798535193784, 1.1051116712768847, -0.05729159614490116, 1.0483826993503917, 0.8433158989040287, 0.27444133733414283, 0.07787999209007525, 0.011933255806500237], [-2.0684181278257237, -0.23549403603338387, 1.0333461851034975, -1.7762861430831494, 0.01485768175430959, 1.397612003431175, -0.4490555197756683, 0.6843299014602624, 1.3921633220100418, -0.6421985174661199], [-2.298156509837746, 0.6726493523949888, 1.438927785981897, -0.1673337684430273, 1.5227077018947366, 0.8721700946374741, 1.856527939261202, -0.4271883619080052, -0.5972870306461305, -1.0886918822607174], [1.781394080856909, -0.7665283702789251, 1.4477238394313252, 0.8330119918596615, -2.819241904420436, 0.40137838804824033, -1.1881068569975675, 0.2263418909069106, -0.6021726237804473, 1.4380492306351846], [0.23493077071383012, 0.8397561485888411, -0.9372127125001549, 1.071041158763915, -2.180175776665573, -1.9189427860329689, 0.87430073115858, -0.7212539547443666, 0.5642651579616371, -0.9253930349810869], [-1.3788395097667454, -1.562691928687918, 1.1920094101747296, 1.8730860318538778, 0.4292197775398143, -0.6427337825309801, -1.3829834524838056, -1.6677942778032078, -0.17473433314155165, 0.9161491909026672], [0.24286816889977247, -0.3204330622376354, -0.9314682816704014, 0.31719077458544326, 0.3184282464745394, 0.6986208982554238, -0.04981021771457089, -2.435615235392105, -0.8182841537470747, -1.3497458797876072], [-1.4295942432616378, 0.29483926699755436, -3.09490258806338, 2.4567333496529464, -0.08404049118168345, 1.1518387516878608, -0.6406771288523204, 0.6527195770071677, -1.3203817076788598, -1.9114877818085454], [-1.4945717781076455, -0.059116393749417614, 0.09002832196105025, 0.5723323867844341, 1.1890913213913987, 0.3063688835881281, -0.4939176462656555, -0.8061805913624572, 1.5025220000333337, -0.22549203346135696], [-0.12906223741446218, 1.6246642257108839, 1.5333174409122163, 0.099181766684932, 1.6519300494180889, 0.08410285378359778, 1.9992065148133422, 0.7780541333718932, -0.03515913236080757, -0.6264183979468686], [-0.14386824041675111, -0.854979973183512, 0.5040152605807984, 0.8647693246647813, -1.0243750579280841, -0.8991665187094556, -1.2663299613244432, -1.3208581004477942, 0.12485579712822892, -1.345794536954824], [0.5009881547858743, -1.2680648841488484, 0.03672711007481422, -1.128995951482717, 0.8005011940001551, 0.26165998017021463, -0.909407428249351, -1.69804804711168, -0.7358882760797819, -0.3834090795663032], [-0.12477824558826493, -0.129270701403132, -0.14644082058664953, -0.10935376654890994, 1.3202388001764926, 1.5363778710988243, -0.9942791130887633, -2.0927680710586687, 0.905085917323439, 1.6465281850222075], [0.44508634485282783, -0.37251108926508036, 0.7282502534975691, 0.1419843817153896, -0.5838431522663187, 2.1788491377919663, -1.0587920667243944, 1.3619551501300633, -1.7636986354815671, -0.3443528077510143], [-0.6652444071356973, 0.9568158220827581, -1.131098482300209, -1.1093519934220168, 0.29340038248391953, 0.676626712073156, -0.3378271141455682, 0.5158449664859937, -0.43138421191274107, 1.0621459732958982], [-2.2628729036623603, 0.673690231861131, 0.16745988464070033, -0.7219478262644675, -0.3404014191825934, -0.4620830422059652, -0.5415906706048517, -0.3578842615649313, 0.5022475938191427, -0.024580938272585093], [0.5446788261155084, -0.42870915251271696, 0.4648843414356266, 1.0893627252801488, 0.18079497033324937, 0.5837992397043664, 0.4865111319888446, -0.0156997634297861, 0.9384558498348036, 0.4526382539255747], [-0.21189845632062176, 1.1906352773663547, 1.2850518636576937, -0.6080527416055712, 1.3195175582075545, -0.4168018879829844, -0.24730262840942566, 0.15416660708288069, -0.34488536488384364, -1.124173520307166], [0.3726855215311533, -0.8254956826618229, 0.3971160687501622, -0.29937192368088617, -2.4810497622315193, 0.2855943146861191, 0.9026460398261779, -0.9906491330488266, 0.36630327961622033, -0.7025649601880496], [-1.6761849390788883, -1.3236437960569494, -1.567327924108324, -0.987122499772173, -0.06841246777991938, -0.9298127478985442, -1.7205196110338585, -0.2137503182665022, 1.0532517737649953, 0.9554632305092009], [-2.238932346716684, -0.8703668870899989, -1.2985615430104267, 0.07075428297690038, -0.10606797736487703, 1.5628455763548665, 0.664041743855409, -0.13908004760808718, 1.1194116170865782, 0.2536316608569021], [-1.2987519363652391, 1.8004128813682574, 0.5278378310514517, -1.2974536558740806, -0.022250357719156837, -0.9644643498838219, 2.4488978605385316, -0.474255395558951, 0.16883896586881525, 1.7099003450050019], [1.0728895926623947, 1.4531822840332806, 0.9970692998354868, -0.137952148052592, 0.8724068892698824, 1.9804182631411154, -0.6137130284474488, 1.3028010597635364, 0.3576617238814518, -0.11117787258665196], [0.4751843982742886, -1.6247900761576084, -1.2733274322034014, 0.03628717158928046, -0.297213421050147, -0.7683157533366536, -0.7031149767838749, -1.0482666233368183, 0.4152902758091858, -0.4617097116532071], [0.3955613017532345, -0.21597646550558697, 0.24824493757737784, -1.3828916348991025, -0.4640835040501447, 0.6392671301651603, 0.032669282660335544, 0.6148572222028239, -0.5787761593914215, -0.7171289863432448], [-0.33141449751116453, -0.9501235040770383, -1.407137507763053, 1.4813601081253078, 0.6580211889529721, -0.4463683833289561, 0.17544681381021088, -1.7118386630958913, -0.8510728420423453, 0.5746416979947232], [-0.794793208049656, -0.5552736965566093, 0.6819359345123392, -1.2089697739361969, 0.6319935925142093, -0.8822563529902779, -0.9599590793814657, 1.0533057067776732, -1.4226441237359144, -1.1036951066122072], [1.7884227161622763, -0.2630108830567482, -0.8830998418545939, -0.2172588483899773, 0.8153106598279592, 0.002970670009795405, -1.8349457126094544, 0.6107881010673288, -2.2150249495012235, 0.7719291987214766], [-0.08102418267513588, -0.47491167033766807, 0.45088230064073204, -0.5428361652172901, 0.33427981314272176, -0.28092036436369316, -0.6707520643063273, -0.16694231024159603, 1.0373988072159546, -1.6543168099324692], [-1.4608916967411052, -0.5329192551110599, 0.3964362331458182, -1.3648531264542392, -1.1312916960564288, -1.5882096369459648, -0.7591904835053167, -1.003647180426078, 2.358786948270163, 0.3843234998087437], [-1.3124851815186804, -1.1027014052945336, 0.14587666154435053, 1.051759557764902, 0.5577339881001444, 0.13979213536086343, 1.038763146999848, -0.2702902790623447, -0.45452020998050713, -2.234845817356649], [-0.444013509200458, 0.9923349852007531, 0.5256514175223591, 0.1305918363157808, -0.8907385294405985, 0.6708652406878899, 0.46026400633087583, -0.33642170664629856, 0.04741131675834214, -0.28361232285393684], [1.615220992991382, -2.329518103362006, -1.1180917473308916, -1.6119707147042672, -1.2253055129468786, 0.5990756700581886, 0.5014600595471561, -1.5552237716459971, 0.48287218981764074, -0.16727691695737867], [0.40824087434301465, 0.15321276563034705, -2.697142237204965, -0.24696655926746675, -0.13695688324345603, -0.048087338080384186, 0.45882309898865004, 0.5498442902414669, 0.7117175754750922, 1.103363072250549], [-0.6025080684686748, 0.37102169147204406, 0.5897485624746102, 1.1539762130048448, -0.8979942014333425, -1.4875813367816382, -2.254651921314427, 1.1594503345037857, -0.6849904827438892, -0.5139475169175161], [-0.9694718015973428, 0.24627716640066516, 2.0350004457818685, 0.2279826150293956, 0.03949754966401394, -1.141467509700507, 0.21669639964843937, -1.2931179915018665, -0.36706482946610175, 0.15976649428306708], [-0.8394457569616802, -1.3562443930184482, -0.19948888008977594, 0.007071214962510605, 0.5178493120076254, -1.5353296917087798, -0.3756744651597107, 0.3708435949853504, -1.619925298844412, -1.0782364509455369], [0.22153192918198977, -0.05740425617800798, 2.9477223458988937, -0.4900188158481837, -1.16833333515746, -0.35764502926849906, -0.6170142035091111, 0.7144616574015418, 0.10776336796297026, -1.4350024814510833], [-0.9591984351059809, -0.42377229389346127, -0.6886422762474913, 0.8982036131138053, -0.5665923628230602, -0.707005994262722, -0.9859913893394688, 0.3301042028132463, -0.663437487519399, -0.6433353896274224], [-0.2583395206332047, -1.3686826187490724, -1.8580517979795517, -0.19601250676392085, -0.9088118042921457, 1.1331398233592813, -0.4951330609571251, -0.5478310435914527, 0.24956049896355148, 0.32509662960122454], [0.05830684106570814, 0.7068602215040626, -1.2156034857625535, 0.5593833741166577, 0.08557617887103977, 0.18301241250610398, -0.7780032142554826, -0.5157105248160643, 0.42329643845559106, -0.5113681441584738], [-0.7658972318902478, 1.1223888038178593, 0.8512867641259863, -1.6729750984674414, -0.6866674140714596, -0.2533616603395364, -0.7264415391469753, 0.3535779043268519, -1.6407536537657939, -0.5747219098411824], [-0.875941774691359, -0.024182915375520978, -2.0825181668676196, 1.878242377210756, -1.7668327836222153, 1.1720732467863537, 0.20779354534233255, -1.2780073091430655, 0.07093475866788669, -1.4327873596279643], [-0.5079520721878217, 0.4905264109409854, -2.402860147971908, -2.314982704076353, -0.8466987443165861, -0.5913588021954824, -0.8518885337966985, 0.5901778523866794, 1.5045377351676419, -1.648574127793523], [-0.09828490725552685, -0.5160329192775175, 1.6797162057532151, 1.5312032086679561, -0.3100194667131118, 0.49558421618976567, -0.44314920728094676, 0.5370066835329089, -1.2746989461151208, -1.1711479329650847], [1.1984497002628203, 0.6949897649565667, -1.3630431076333978, -1.4967618966457876, 0.2676130892144124, 0.24947423042946185, 0.024687005681168776, -0.21786714746255, 0.26684744944466904, 0.6250940107885221], [0.0646276064569244, 2.75360721008567, -0.44983399633519816, -0.2651258352060379, -0.4175656539485949, -0.18762792246074878, -0.8198181340372152, -1.4770712394264103, -0.9181229168125924, -0.14594301930474332], [-0.43998430822174234, 3.5749834073791917, 2.245079588553551, -0.290490241023873, -0.17336073123382698, 0.07034200503451138, -0.7455429092173288, -2.129152823624981, 1.0950419526904638, -1.4273324821403028], [2.274979198366515, -0.2526161324443504, -1.4050911233840033, 2.0930862245541713, 2.085175593525069, -0.1303906532267227, 0.3461971190795573, -3.358700078458532, 0.7421720323834847, 0.9915426369944186], [-0.9671882372125872, -0.2806178841694586, 0.05860030428762757, 0.5089858238648544, 0.1356313682994508, 0.4179229864651698, -1.52410047266479, -0.36342618763699025, 0.5685659912610521, -1.0769376261991075], [0.0480849006453939, -0.43747068984242315, -2.342480380341285, 0.8651751333400656, 0.6640420966803977, -0.14207732117631716, 0.5147594894202355, -1.9062737258476377, 0.4000585060888947, 0.09660852187150688], [-0.9687121249147088, -0.3929285845328178, -0.01988769094461069, -0.7446665705248376, 0.1576460870606044, 2.083114453073021, -0.8441134321766619, 0.6518104463578944, 0.4866308104640517, -2.3122992819785124], [-1.2450693975597495, 0.1596646383779998, 0.42651876574918185, 0.34438131420694784, 0.5440306305285534, 0.4646657599145634, -0.8822385402591503, -0.4242560355291151, -2.033823705965892, 1.1078706018204452], [0.24754828518685118, -1.5403095959917605, 1.056936401336512, -0.3958727893604062, -0.6157201860353433, -0.25067425447798664, 0.049344369822259274, 1.362487966919362, -2.2423129402134063, -0.4962919764915891], [-1.302643368522558, 0.14758570199163973, 1.533253239299768, 1.1346614988812376, -0.12564017979051859, 0.8253992483621706, -0.17317685117183543, 1.030733831851767, 0.38494110857797753, -0.3310363661860963], [0.12273885581089236, -1.0427001107644487, 0.22694036440178933, 0.21538152834525873, 0.2451417799301044, -0.4897701858848985, -1.2867588483604755, -0.2242426626214166, 1.3579408130896387, 1.2736803803888628], [-0.7488305275467159, -0.31846163328411803, -1.526799626138035, -1.0960916152498281, -0.3772378591150591, 0.33949308307239145, -0.4603360037542789, -0.7967669746102071, 0.21012978715586808, 0.64712564214633], [-0.5636805367674583, -0.790293207023218, 0.6795480677245035, -1.8771867110114449, 0.17074502157452706, 0.5913973998633473, -0.18782356954462248, -0.005992697293557795, 0.48367897257165154, -0.5406089724887958], [-1.3506273680378684, 0.8325892422065684, -0.17051739627053714, 1.308558776935842, -0.2946149364163648, -1.175957709333211, -0.16944789198342244, -2.213097400879078, -1.0993918866903714, 0.11075375889892751], [-1.0461606349405448, 1.1805000095747773, -0.08809414234966817, 0.6391811343304324, 0.8924320537413013, 1.466375687501685, -0.6279975411310385, 1.130722048569621, -1.4005704431437114, -3.0815008137668003], [-0.0029528738249246893, 0.138778547992753, -0.16019124915402538, 0.10488615319410867, 0.7721958895813794, -0.23953915364475806, 0.8711201296915806, -1.2919113231008224, 0.8029040526424583, 0.07416851806799707], [1.172013863877669, -1.3678392142030154, -1.2848070011100647, 0.23647641989935497, -0.7942500964456614, 1.4429077974972115, 0.5454815364563659, -1.2476788710727573, 0.21040934994296884, -0.46457172841936284], [2.586763366869426, -0.14938178066006458, -0.3484000892397011, 0.30303222543186314, -2.3378842468312553, -0.2912838635515912, 1.3338151650188366, -0.033396876426828134, -1.5520222622703308, -0.9134987942092705], [0.4464206664756966, -1.6778126345979048, -1.1121578373795427, -0.8741216141647785, -0.8071440021393238, -1.428362317211931, 1.4893122490573458, 0.8510003648920929, 0.976038216603348, -0.7188535797509655], [0.8203501084045783, 0.018053992626466186, 0.515638570055066, -0.7283971032763844, -0.31799637346779563, -2.1727795729587647, -0.10027401400107025, 0.9920088674849898, -0.3664376106690562, 0.34146032791098097], [-2.2537788826404865, 0.19869967479739778, 0.36822564654501083, 1.8382152743465265, -0.5724957536009714, 0.2795021801895883, 0.9922894509902688, 0.4322505446973483, -1.3533581341883645, 0.9353622076760466], [-1.0831047584214823, 1.5126888348944219, 0.04225003054594098, -0.05472633492321455, -0.5732306162934009, -2.1680582324044715, 0.33594734564782575, 0.7430203662067548, -0.8605979534423599, -0.5343029937648167], [0.2944323984936005, 0.7509829345737159, 0.09113231835464665, -0.08290783217004853, -0.5089230300823967, 0.7949717556189894, -0.4151321635352546, -0.49727103965095243, 0.11545317574995058, -1.2442419059248857], [-0.43373922940870374, -0.2783420127215191, -0.3978326753517259, 0.2917414056805198, -1.37399437803668, -1.381085448783662, 1.3408373192632141, -0.008621981677771064, 0.1423930508599228, 0.19700910963202242], [0.40670471332708347, 1.8099805352879847, -0.32117246052060133, 0.9242661606478382, 0.5462148276270175, -0.9097752879568464, 1.0489563907468284, 2.5237078662890404, 0.35353570132532586, 1.354117927179682], [0.29340957789099986, -0.22937983668891723, -0.6889965172438484, -1.5461906881317893, 0.5655011155911124, 1.0085331098720542, -0.8782365628576883, -0.7722454093110239, 0.24203164795029666, -0.7763088824205687], [1.0563790783714129, -0.23511191096610246, -0.5941405778643032, -1.0883346119819897, 1.2907908225981057, 1.2023148883052401, -0.36507314185615825, -0.6397045832421829, -2.1395011714826455, -1.7296489305993161], [1.447343202060981, -0.058074996143914794, 0.45440152022911195, -0.487170225473573, -0.39574150049502765, -1.1672306625587354, -0.8465615093394889, -0.016478609052289813, -1.6551969649437204, 1.4060985290269772], [0.8435114312641072, 0.25539688386111636, 0.38746995347009466, -1.6794013695433514, -1.1165758979106928, -0.847608654640639, 0.5776435227868977, -1.9215534971969621, 0.9339053544346037, 1.0040732874995195], [-0.22760162312952997, 0.30563952462658, -0.34257136954771933, 0.34278816477997115, 1.1854651376175909, -1.3599142281667334, -0.492402280309201, -0.8677453077636105, 0.15173947825004475, 0.2803071925087845], [0.9581027288004319, 1.4687708660693286, -0.4030035560121184, -0.40288459711935753, -0.16434464688256153, -1.41551757889199, -1.3677036626846821, 0.9903880337255594, -0.6573150112861931, -0.794115606106441], [0.6209921844968602, -0.47752831360359815, -0.6924713110232957, -1.8934392071690527, -1.4140029131668752, -0.08505835762731934, -1.6281074840737073, 0.07777154270248426, 0.5841156388884345, 1.0392347281387477], [1.079407248043851, 0.046122088412009044, -0.7032847348414664, -2.2400578677440386, 0.27344167713641004, 1.0540297923012698, -0.48356018182161664, 0.7407331657668331, 0.7179444568050756, -0.5934049592875217], [-0.34767928868889963, 1.3802056706315782, -0.021186284626756043, -1.2152361693918035, -0.9292460573497993, 0.06495753734014634, 0.21718246813448946, -0.5477904472557098, -1.803153921497814, -0.12306713183188106], [0.7737353886300306, -0.39247271881132817, -1.3719314508815088, 1.1026867747021956, -0.5618708890360192, -1.4463070892497607, 0.46409424832586493, 1.192766617574614, -0.7854922746487658, -0.06949135403669543], [-0.1967495993688902, -0.3310809658416218, 1.6199518067532317, 0.18545855840121214, 0.7161092485499951, 1.209277835869435, 0.4097598923212191, -0.939628360130135, -0.3651754856383851, -0.5964874468499384], [-0.4590351773289914, -0.9939935040901468, 1.3089336917753287, -1.3796713527281537, 0.8158433057371736, -1.4259490634713108, -0.17461852409536313, -0.35081719524296345, 1.8323787241804843, -1.6946921939578499], [-0.2197112024701654, 0.2818178339457386, 1.515309921645751, -0.5896968524460253, -0.31817329325729427, 0.7083377588334024, -0.297138009616013, 0.5507952994304239, -0.9884352537476152, -0.1536586136521309], [-0.14487615571310997, -0.8688867027223807, -0.4909702853046311, 0.6458574340741492, 1.0537815763796345, 1.1869625774850978, -1.7163693747255326, 0.12871159350887154, -0.7621987898329289, 0.9276517913403847], [-0.5642934377996484, 0.41634467106738937, 0.8857606890203445, 1.0419232734021624, -0.41088105727218244, -0.4476446101448614, 0.2605473001543373, -1.853411843506791, 1.4750698410474603, 1.9576740816483704], [-0.651515727453267, 0.1622005148194452, 0.3882491304012235, -0.12242710305519051, 0.2572907261645219, -1.3843096148977596, 0.609391412969451, 0.5001678927973758, -1.602872023398465, 0.7754619249025271], [-0.43055886312885533, -0.3590182424148287, -1.7265628272342641, 0.06729412681196834, 0.1857283125397932, 0.44998398188045263, 0.8102815623558868, -2.195988465371019, -1.5645434805866714, -0.2937227824209364], [-1.9887570745685228, 0.4250975174664322, 1.5712977999909294, -0.8412370386394733, 0.18834680634643497, -0.30254907076046067, -0.6479253591517764, -1.0460525417501356, 1.533283125106274, -0.5770058778206303], [-0.6841469962348956, -0.20719727532263352, 0.6466914738100048, 1.1306132501128814, 0.19308867098424493, -0.7323893675026404, 1.4522141232766108, -0.828696691221512, 0.8260042986984246, -0.7713852537885095], [-0.9628931303549234, 0.5450048108728553, -0.002044435886047233, 1.209700587242032, -0.1984041833224935, 0.42276751350468583, 1.7042220969663877, 0.0834911210513409, 0.05170192223111785, -1.1773201781662885], [-0.8519747186888114, -1.382840782574697, 1.0528016033954255, 0.33982033171192644, 1.030233465899834, -0.5178418227847198, 0.3597282281910979, -0.5665569217595937, 0.341059590770049, 1.3727293698621166], [-2.1562080432561253, 1.398767816846298, -0.405600142869888, 0.3315894349211751, 0.17346640690629697, 1.4049989553639695, -0.11548046022159747, 0.9006966812854459, 1.2538363487847564, -0.6356990381698209], [1.2655645843773602, 0.7883787954777728, 0.6433864248094074, -1.3802696289937422, 1.234747311408453, -3.0457232286857585, 2.6411462935993377, 1.5141243621418718, 1.1668650963316571, 1.688146157489078], [-0.5693214634292718, 0.5831834040209879, -0.5781103472382513, -0.3211497068670616, -0.3769796637173202, -0.0950925736401496, -1.5113210082286854, -0.3466067592213508, 2.0911759727535135, -1.4747545387934393], [-0.7153914169186142, -0.3587510285549002, -0.06016436566926972, 0.11502640571847159, -0.6618640701792031, 1.4306280820405437, 1.18020124845634, 0.41785459705502664, 0.8961995926579683, -1.6546982431247717], [0.19937365429307788, 1.866096033190634, -2.1158516491554566, -1.0547414176420857, 0.5469046390137273, -1.479576995546677, -0.9218415613370965, -1.0078950476571376, 0.3149948741479077, -1.3348466473859788], [0.06408338137955798, -0.8545241669700786, -0.6076961050638966, 0.36353140692922026, 0.32190459301070823, -0.22328017954981266, 0.888685544647225, 1.4258399292593351, 1.676446887730839, -1.6095137395368233], [-0.8110211195488684, 0.2666567820077816, 1.4366029971452583, -0.30233108046519513, -0.08943403457674215, -0.3774637291697829, 0.6394576519930093, 1.1543260759248255, 0.23903408498586445, 1.9193951323437122], [-1.5745603135474004, -0.6688284424759087, -1.165652548539807, -1.30024731508087, 0.11703475245440749, 0.07347562106464856, 0.9636116903620814, 0.044513670855770196, 1.553298116179218, 2.3594605494014123], [-0.20075353809065435, -0.14028433469081153, 0.1668576367697702, -0.5439840428595053, 0.7992317304252615, -1.346766735697885, -0.43517177077253, -0.18204709461738944, 0.586766599946773, -0.5821884242757306], [-0.5685591207811882, 0.21923542251534164, 0.4567318118619442, -1.505657186181537, 0.7078154923748645, -1.6419247688092578, 0.552226532367156, -0.20686804251815352, -0.06796186428332408, -0.13985965326662364], [0.49887379284761285, -0.42132833447238466, 1.3703490321532124, 0.6184005557103263, 0.8054735332999997, 1.2379441390464223, 1.1372870496824532, -0.19967707203702337, 0.5234669555690403, 1.2858999673612563], [-1.2800170530061785, 0.12299923192596447, 0.5673456037848105, -0.7577011167111639, -2.3055254565955976, 0.06956321803200088, -0.30712302454783363, 1.8521504618117155, 0.31143179956228245, -0.14180855532049563], [0.5648634811868799, 0.5760179336896989, 0.3901051443120934, 0.7405940406382483, -1.1676284673005146, -0.45707155889078516, -0.7777277723142515, 0.06694281295458537, -0.2610803148597633, 0.7347059472838652], [0.875043318448506, 0.6116844759371224, 1.1628153906728953, 0.9779422682641009, 0.9694472262041319, 0.28290843251600567, -0.8258678082071558, 2.0153715190829504, 0.16515474890145354, -0.5627418056301472], [-1.1848887040724096, 0.5774748954554204, 1.0949135793282816, 0.6162789634562892, 0.4858464243132988, 0.10516705520319802, 2.483726390348649, -1.2263418262489159, -0.2944513472887377, 0.7805570306496546], [0.6209794889907531, -1.8277295634307302, -2.081046995346869, 1.836116964910916, -0.513458852072519, 0.9488736505275936, 1.0926827103353405, -1.3420941937830784, -0.5040270010060569, -0.6524916148464072], [-0.8406610594214087, -0.2774424012586479, -0.05994640440308438, -1.7931385987137436, 0.09936983813450793, -0.11864058326902212, -0.4097402917782914, 0.043579575574466914, 0.7285906270886818, 0.6819174490230225], [-0.23561090849505173, 0.763356501230278, -0.59457253195104, -1.2803063071505458, -0.694291861492688, 0.41355272509790797, -0.4311964667970571, 0.16768756265778562, 0.5245755557860236, 0.7811886905039542], [1.7792801576326325, -0.1345194492370214, -0.11887017510191841, 0.04175689659452817, -0.60842735393454, -2.5836823291267343, 2.579296325987861, -0.22660815374450027, 0.11118277763118718, 0.8687180448133507], [-0.34554033166189085, 1.9112183665195324, -0.2382471279372194, -0.6573337227538126, -0.5915123840525452, -0.2382141346514862, 0.12376290915459343, 0.36804731777135397, -1.0138308955552258, -0.4642866667785596], [0.6516281926171731, 1.4571275455486863, -1.9339684365109686, 0.034531919081573666, 1.3134351054309124, -0.9051422442610407, -0.42999929113776814, 1.8696678475590776, -0.21964853346289467, 1.1001616882173433], [1.0112520156205873, 0.7793044394732438, 1.1618576713807414, -0.154768370013703, 1.8984534155039883, 1.6217662967859832, 0.3863707230687189, -0.09258956191828696, -0.1731868397773663, -0.38203736312308073], [-0.7748362821952157, -0.575092673039211, -1.3977468287227999, 1.866829746102401, -1.5892563545530958, 1.1531164940683096, 1.728166793603454, -0.1620378002806892, -0.9299460834770794, 1.3564830075135927], [0.6294219878369142, -1.6688940809971298, 0.3822146754938353, 2.359112783620972, -1.4296704707248546, -1.3808153684373519, 1.592334419948892, -0.44287336709167485, -0.5896286927636737, -0.5458303526333081], [-0.5145460983057363, -0.21841087403539655, 0.7711062137404738, -1.6388903239864039, -0.5206199647753709, -1.6709448180674071, -1.660567749528002, -1.5131096524319447, -0.14550369607205815, -0.07220225543613173], [0.057861179287360925, -0.7121749807206447, 1.4326361773506948, -0.8672446228084209, 1.8124339657453064, -0.36173304389796673, -2.725644980412732, -0.6234179380313147, -0.896923759666664, -1.0797537804670627], [-0.8222128455246756, 0.9678971090840903, 0.3890273271446199, -1.8911201519425411, -0.8791562420133682, 0.713953191325453, 0.80983788157603, -1.134015366136054, -0.737418078478903, 1.338321997741546], [-0.5761800323313896, -1.6538183010640268, -0.6779613415849266, 0.9703771677038558, -1.0076495604735782, -0.40761357379769075, 3.01867125901369, -1.0593112251032886, -0.45515546514361077, -0.5841537787950136], [-0.17738637642550917, -0.4660592081674288, -1.5707200330064628, 1.456092061538767, 0.821586939801755, 0.10217893772359418, 0.06355296234223559, 0.7405869831814543, -0.5770233305753677, 0.859909408453443], [-0.05464985595836545, 0.7367078745182551, -0.44537073971015356, -1.0842944494143296, -0.12539192891864218, 1.0769219688073115, -0.33420124511865446, 0.022760011726455656, 0.7944222068433916, 0.9886430222840099], [0.7559530027653454, -0.5057276066564588, -0.7878225552428423, -0.2571266519169242, -0.3930695195755948, -1.1257413934539844, -0.5134098533299918, 0.43069036891951734, 0.7970973255799377, 0.3921126100524579], [0.16041547614586263, 0.08087869030116178, -1.629388767323464, -0.9375199401565963, 0.5598309657045154, -2.242412427339932, 0.35944014091214166, -3.5321611376162725, 1.8951433325115257, -0.30473094439922505], [-0.8914464631668421, -0.9590634415730763, 1.782342630058424, 0.1868957371085656, -1.669301362524594, -0.5829996875628669, -1.0467142893871477, 1.6643568108436129, -0.948880143889764, -0.16241845108206504], [-0.5943477081703289, 0.3230363346029141, 0.8236231500390452, -0.0013188364801586339, 0.2044789354008902, 0.8824840774258964, 1.7301847460674573, -0.7106897007504753, -2.352103469287216, -0.9731640872326387], [-0.07812492632582878, 1.317721097817515, -0.7529043144549867, -0.38830849534462986, -0.8538892420309825, -1.3768063628359672, 0.7417213873581728, 1.2474618814684766, -0.44709488232636, -0.971974441623462], [-1.0553313520692367, 0.32391772277574266, -0.5126386010075654, -0.0028963966169243687, 1.6016983108751623, 0.06994471127800558, -1.4726184264185007, 1.015809771677357, 0.0001049816695304322, -2.105023765973249], [-1.1437448011696993, -0.6235920136002893, -1.0450353442476548, -0.4968026011570793, -0.12154364455629094, 0.24326575009972146, -0.06531803519627691, -0.31713648239396813, -0.024762423667661418, 0.7231630523676559], [-0.6815031119823861, -0.45121253503598185, 0.8592695533172402, -1.411282103528113, 0.9406140515744316, -1.0335083139407115, 0.2201183446626585, 0.3310526247162067, 2.6599133479036894, 0.8745915353518255], [-0.18632493583839269, -0.9902217506064732, 1.761213804502414, 0.4831721062811247, -3.0751950240040404, -0.5120674382069236, 2.0824248207390137, -1.449133756233871, -0.56380681947318, 1.7173955066378035], [-0.034307406677624885, 0.12776614444751339, 0.18199422830902268, -0.5731671495739165, 0.9478828482502725, -2.4871941465299154, -0.8036229598344757, -0.32642558440688646, -1.0228373119548133, 0.3777050623543153], [0.32334134021728833, 0.9158861982475641, -0.2584371597966676, 0.1775591925563234, -1.028043680985402, 0.3616627990309738, 0.8892359999933338, 0.5426388907239733, 0.3333984185723971, -0.90989346468783], [-1.3713664584808916, -1.6832492596887294, 0.7512143483117814, 0.5564115894654108, 1.9389155813357486, 1.391017677973244, 1.7356074557647598, 0.2801754696586111, 0.033611540639335115, -0.2695950160440446], [0.40998286828466796, 0.9305809593405806, -1.137662272717767, -0.8440152305848175, 1.0281991216134065, 0.03562323666658495, -0.9707803732659408, -0.18144948973263347, -0.0386217566328248, 0.7248030796070367], [-1.3919863352770212, 0.19134522511681148, 0.14604384590304367, -0.1624075315898019, 0.026680200971952627, 1.1026262535566123, 1.6881564126933561, 0.6318573899811335, -0.035100054255351114, -0.5381782406992834], [1.3212135717354716, 1.2732749901559743, -0.6575256679366793, -1.2587358019147694, 0.7953706731573135, 0.9487693657594052, 0.7153037534931062, 0.9222369375757262, -0.022142834980533526, -0.778447338413513], [0.4613266087693787, -0.015513225864151456, -2.082553864452807, -0.0513492002422742, 0.3278913386606286, -1.3502913717409906, 0.47011763780947546, 0.22650444180561138, 0.041845638787675325, -0.39137419538925344], [1.7625681836941594, 0.8544459800965981, -0.5553437993484667, -0.1867740038662, 0.3678420529978229, 0.5067773084123458, -1.8263661872053476, 0.967169539289817, -0.9323224192744808, -1.3772620890269023], [-0.12863739889245698, -1.1847435088141627, -0.5901946789291571, 0.3886485790096385, -0.5675484713950283, -1.0881509874320936, -0.9398614650852682, 1.153043445829466, 1.1258808726981475, -0.04684960845950013], [1.101458848848212, 0.17879389822632114, 0.6004112588001665, 0.8782496706597803, -0.641289655174639, -1.7375542212569919, 0.578672489609753, 1.2970662286785748, 1.6658344016111166, 2.5728729912791106], [-1.0072718248106074, -1.352170791467201, 1.3086838395466531, -1.247086228270395, 0.9087864548410959, 0.042389506970422666, -0.5270615081250669, 0.9875984389112279, 0.18857973812479578, -0.42688038398546896], [-1.0107468939291864, 0.04122499830100253, -0.948904475726009, 0.5661703913891113, -0.44628985183721726, 0.4788238004182633, 0.07704850343675118, 0.3231022329888188, 1.019381407838357, -1.3759740702360888], [0.16390816325818194, -0.012511344565597738, -0.14109806281375298, -0.21736104511827833, 0.8188332085407161, -0.08580275040010497, 1.7908233035067593, -1.2086861422754167, 1.4225771089876307, 2.4146990132523105], [0.6714500133821509, -1.1110168325988814, -0.9068981779350975, -1.324064444112756, 0.16951485314223394, 0.18260187846182413, 0.9934651721056582, -1.9191381787159265, -1.5264977514883447, -1.982345469963023], [-1.0551658740190908, -0.987949585071351, -0.5264983926330652, 1.2283375124588822, -1.1867982379207163, -2.2333207136675264, -0.1973614747556605, 1.5059009376041739, -0.41035833616437384, -2.0209561377186485], [1.6414673626536986, 0.2981694056575542, 0.8971594326047151, 0.582791840898698, -1.440449238074192, -0.9062173781227045, -0.12927856329601264, 0.6097783931880725, 1.8638309966430915, 0.9014104608017506], [-0.3549350882171135, -0.07195364974424598, -3.358334521051225, -0.7128005524157132, -1.39470954659704, 0.8304850330069938, -0.3115332257344852, 0.5347669557966337, 0.038475696012700164, 0.6253435416591493], [-1.2619385967143923, -1.6606950233264681, 0.14232935959317486, 0.2872068316360479, -1.1659037732233117, -0.8580308839223808, -1.022409228174755, -1.1901505852468854, 0.2182399281476823, -0.011248192193952981], [-1.7324718870931881, 0.5049690839994267, -0.2461158083454249, -1.9390258085816687, -0.44193199218718304, -0.38506638784138697, 0.42191111722718044, -0.6370345818290083, -1.2346271893655627, 0.5859871225240084], [-0.18343613465969566, -0.3372061025600356, -0.4761723946463164, 1.5709823007711095, 0.7083059482839237, -0.05630195753115378, -0.8569019379622415, -0.30152584127331944, 0.40167872827836504, 0.5508352872756035], [-0.26789136925582263, -2.009221983991169, -0.20346230387667658, 1.6255856282583083, -0.19411033937810224, 1.793885351064699, 0.09466322148983614, -0.7584911421425271, 0.7024389790785028, 1.313300940837069], [1.4310015428277416, 0.31138488187451313, -1.108167924237778, -2.048795872993751, 0.49403121686728924, 0.06617547535773648, -0.5904547492440687, 0.43870005221246083, -1.1177996386968725, 0.7526050975035823], [-2.3346854011249683, -0.46517047216362656, -0.9924095200541991, -1.085765367472688, 0.5096313463439518, -0.6424101859351155, -0.6571769659758853, -1.0679253150700887, -2.007913802293338, -0.406650501693893], [1.2194239539353953, 0.2101157771144518, -2.2020117382091455, 0.17968358770567172, -1.0446898961203823, -0.5707389537016201, -1.299876419645248, -1.4685628811194262, -1.5523996787745122, 0.31857447831657143], [-0.9076185103835333, 0.341537984417526, 1.002843711464892, 0.7460591415201563, -1.3513619197052242, 0.003984196404816001, 0.2467105205478919, -0.49102335317066176, 0.6261089529315466, 1.1216342191564883], [0.6746688886140187, -1.4926858448936076, -1.0042965337880112, 0.07567946621395848, 0.519669978848302, -1.278695076707976, 0.07802836611193617, -1.650334768964283, 0.017212368260021423, -1.162694913864833], [0.11416460686342655, -1.4704017891838808, -1.5365087397182375, 0.24531467047846536, -0.5834830268568076, 1.1736064360467442, 0.6718826012064126, 1.0030852001158517, -0.03837029490147675, 0.010800652767450701], [-1.5344632983578295, 0.14595222403675573, -0.9333457325097668, -0.49029943030141415, -0.13763305117553976, 0.06029481155389118, -1.247894057893292, 0.7153290722298182, 0.0644022972964145, -0.26826635737751614], [-1.8722800289973247, 0.18885403062034642, 1.0309143767803528, 0.008279138969354078, -0.1254230703594565, -1.3863285030628731, 0.8102220208633157, 0.9560484157549706, -1.1420041336681652, -0.10903846882386924], [-0.7459672824242983, 0.10270363662230445, 1.374793969205256, -1.0616135082553824, 0.10471741378270844, 1.755403501632156, -0.7601589100469703, -2.3706422723064065, -0.5156983340872934, -0.19972537187187553], [-0.713955551186397, 0.23074604141595026, -0.4140005068855876, -0.12341218802637727, -0.45242956615293783, 2.1721196403348983, -0.6800857805559675, 1.441921440731956, 0.8243081554700395, -1.1334725810758304], [-0.24352098783618864, -1.4553887994945085, -0.7721337106056899, 0.8032187384846146, -1.7142823006739218, 0.6134521935260354, -0.5528254562513465, 0.7653073966647053, -0.3395993238669172, 0.31004969332987425], [-1.6362673300237482, 0.9715240903402771, 0.6328058347234027, 0.46714171961717194, 1.654984892118584, -0.21005991047419642, -0.6712045135198774, 1.2038967198908272, -0.7784013873524852, -1.9764899014839903], [-1.9767503940486706, 0.2756242558582821, 1.6441212614275027, 0.5121989241448127, -0.5617896114948551, 0.15575768148825372, -0.44304746233295567, 0.939164486763773, -4.069167215361906, 0.941145766661405], [-0.8432052580980751, -1.6741435148043726, -0.03192904946381569, -0.2389651027404867, 0.9725606297152524, 0.3455374392959534, 0.4186649463787909, 0.8314272706663778, -1.719935569709678, -0.04009876677280405], [0.006253347960181487, 0.6992460925480195, 0.18427167761378857, -0.17095262336456502, -0.5834779591274155, 0.5519949388330522, -0.43081350276837466, 1.6073670520379855, 0.8607101108384732, 1.4557128834373647], [-1.0079036628238895, 1.358261761703156, 0.11092773173205951, 1.3138485742153585, 1.163289026876184, 0.2513461806299222, 0.5358700282626505, 0.6973957314998933, 0.5609249764216452, -1.6701163980278575], [-0.4668360632887682, 0.655214914310781, -0.7861543805254689, -1.342003879079343, -0.09434588034922667, 0.5240288593859137, 1.3876588340497533, 1.0664779932697912, 0.391204181063444, -2.076259614758039], [-0.5527199064029805, -1.665927764323105, -0.622636883191419, 2.073198237915504, -0.675938546974063, -0.9260095181063209, 1.2232150077917103, -1.9829666035183175, -0.3845297943227537, 1.8597028085413274], [-0.01319674245787191, -0.776402999819601, -1.1370284210388346, 0.9968158561944771, 0.7499711771310441, 0.2529233143489051, 0.7678291329549201, 0.5004592423396296, -0.3844805624518725, 0.7851277550343385], [0.4327525581439256, 0.5621261507232332, 0.3916276571218076, 0.3100788974215591, -1.3588463241346844, -0.4799636030626302, -0.38336627840757975, 1.1382991269102167, -0.6103486418834239, 0.08342551764826175], [1.3520090639721778, -1.1391974610644982, 0.5996823016368014, 0.48819261995080965, -2.6289917303834796, 0.17949085686957458, -0.19221191166997115, -2.4830650129892495, 0.5797936405756088, 1.3992865163801234], [0.7770352670360208, 2.042974245760159, -0.6088163051394736, 0.23343080007547642, 1.346027872154705, 0.11910705981958347, 0.434636776683074, -0.6434129322170693, -0.9016167338950536, 0.5939722312990218], [0.3103352133041809, 0.4036864533689633, 1.7743130713081996, -0.9582241939978968, -0.21393538932563827, -0.5512085002898062, -1.861223305614911, -0.2476101748957862, 1.6311275909226581, 1.5474580371680455], [-1.105013400816446, -0.005248271962253555, 0.3812584521946309, -0.6031122007452817, -0.27015030259564005, -0.7682224971751296, -0.09512346988209565, 0.6555531378861753, 0.24880195381766573, -0.6586901896254851], [-1.1006346139020473, 0.9952941058285792, -1.5593644501684196, 0.7927670009264328, -1.6041308039692683, -0.06998861272972311, 0.22186658163863576, 0.9009227705524184, -0.2233496279750726, -1.5342114551102821], [-0.38148870141053304, 1.6764375195687922, 0.4065421170648211, 0.5156276393336484, -0.17429768532560422, -0.10490096414261087, -0.036120013396132564, 1.1333296996790934, 1.6682745681442197, 0.5264579049912563], [0.5481671047977388, -1.6584874797922864, 0.3662579615986949, 0.5300818643370784, -1.0600509528038913, 1.3424307409588712, 0.7369258371354621, -2.472185132489821, -0.8511958677360498, 0.5300756902373469], [0.7829512993414144, -1.9609371956656088, -1.1953035488305077, -1.3081527678053104, 0.9210383989229928, 0.23599399507838625, -0.9080265211070635, 1.1668894146250948, -0.0854338854233921, -0.8708386572795932], [-0.35491890540824983, 0.38071760884976114, -0.18415408106396144, -0.20243866120740509, 1.6604078598056387, -0.08983132139322161, 0.16190142415277872, -0.6796628727808629, 0.0740135444090831, 0.4715961428479472], [-0.4104908707251195, 1.7443700108409415, -0.23563282060888197, 0.18496484264152324, -0.10234469238064951, 1.234898098082638, -0.5333956148631993, 0.5657827236244725, -0.5998697303694319, 0.30751220172764987], [0.6770876953904577, 2.0432247697521984, 0.5510441562894498, -0.7121964225768415, 1.7658544075919653, 0.6287790344517535, 0.4000873095647185, 0.2994754147688243, -1.1099903123482027, -0.2161050187454629], [0.8374501543537797, -0.0439826165915027, 0.09481635058360341, -0.0911240923728671, 0.12631832219799993, -1.0333415476521801, 0.32290089672485084, 0.353416681376581, 1.6494726319916355, 0.6686086251533723], [1.1751104498430625, -1.1347980049184612, 0.26502146495816, -0.32320227445331295, -0.17666749200749415, -1.5461964613030936, 1.6031136820167915, -0.6032012279325601, -1.688400660034882, 0.21898634783686854], [0.2244450901854105, -1.566290869867301, 1.4603981203164007, 0.011092589937619373, 0.1302848943562304, -0.6015811572439583, -0.877080844340284, 0.23738716344523558, -0.5679941279190182, -0.703198496829589], [-0.43105434020759664, -0.31108303572144397, -2.027318965033968, 1.6106036704183413, 2.446218961104787, 0.23523576415475847, -1.5094379406559584, 2.400795635672002, 0.35428947968113617, 0.8224779357827386], [-0.7417928249092841, -1.0147426080749218, -2.2693732126119532, 0.11306286488808522, -0.4205255047693458, -0.05654295767443047, -1.2171387425006184, -0.7614747596658599, -2.303564441615996, 0.17106537066197527], [0.6436998647714675, -0.2904206185189393, 0.10092907044247257, -1.210852816407176, -0.011327975799988586, -0.9337219126275671, 0.15589799500977292, 0.020738309105852747, -0.3918757836156501, -0.04356767277797043], [-0.5624010345839585, 0.91861568848067, -2.273721277701314, 0.8952055961216545, 1.5307099813477587, 1.735017843170666, -0.9668532397277811, 2.3680979790088443, -0.018984295455753614, 0.326649011659445], [0.42200458763616283, -0.04514639148698627, -1.396920019846895, -0.14003634403295787, -0.5938047665911217, 0.6687519183094696, 0.0595999566825253, -0.6817042158408538, -0.25078649292370353, 1.243454506555796], [-0.28919566818072645, -0.26054574363699157, 1.1977073678751684, 1.1114758103798759, -1.156064600721422, 2.5999776143012383, -0.5109967693419428, -1.0050551741799445, -2.0870840685138914, 0.9254451756481236], [-0.5639908269701864, 2.389723774403962, 0.7073815239413629, -0.7253605961156752, 1.5360140167377496, 0.5911086571529441, 1.7396372733783831, 1.3095291525196022, 1.0814445940954438, -0.6838341807082852], [0.45127309984641717, -0.1490527303732231, 1.2228265522543602, 0.5242898847608337, 1.3475046422197148, -0.7305595326349867, 0.08482574292620369, -0.836803316027306, 1.300868585215573, -0.5147076353580681], [0.8811395934138084, -0.5929739282413278, -0.8717764319149534, -0.5296910956080123, 0.8831788593064802, 1.241199510329592, 0.6864539046910968, 0.4317814239372422, 0.44907566797377796, 1.338136042939583], [0.2713230567581769, -1.0902609666565692, -0.5037235578164369, -0.2704930439958248, -0.7590555827626384, -0.017568980281535283, -2.6910892499640227, -0.7251807163096406, -0.9957975954561737, -0.9144207793281357], [1.430433630035936, 0.05366587603776453, -0.8683727559061392, 0.16551844470567809, -0.9678830837556702, 1.1215615576502922, -0.516268800478631, 0.5305951155133959, 1.1202671539983389, -2.1285304144667268], [-1.2232269725266987, 0.16268672522734876, 0.8433880143334118, -1.5645772089169754, -0.3089555830457678, 0.08945012636456928, -0.8918532552029451, -0.13896716195103592, 1.4124929782653952, 0.49734060902490335], [0.7385346011461713, -1.0357476567225012, -0.9318497722206625, 0.24425869608487025, -0.9598450877399549, 1.0744643416870534, 0.703569966509748, 0.4145875186915596, -0.5737496780432183, -1.1058317559029611], [2.1803042337352565, -0.2721647679157029, 0.601730077439069, -0.7567427804508808, -0.9566167629323732, -1.3819401527952286, -0.5047329653707638, 0.1502653363076144, -1.3680053661129636, 0.5404575471385878], [0.48117955443777094, 0.7635293956279862, -0.31329592082797586, -1.2900279440608526, 0.9275656064881315, 0.14267863800332614, -1.5021925662961633, 0.7314405660443124, -2.08092917508665, 0.23751740591556242], [-0.03337172007752145, -1.356661734199489, 1.0721319001538379, -0.1738717230119988, -0.945500498185678, 0.46857160940183545, -1.066217840769169, -1.0756099766877274, 0.44172499215956684, -0.649753552376303], [-1.0010438008388316, -0.836594053161405, -0.7044633358506225, -2.0841578137474674, 0.6050491392120202, -3.2789912111984747, -0.6211541237188857, -0.04471486538931882, 0.4411224862659119, -0.4456678617426311], [-0.3139018767701814, -1.691953833001047, 0.9650544704663251, -0.8814993106328599, -1.1360495957080798, -2.145295719073823, -0.6967456815861967, -0.8105058302636728, -2.046115894270257, 0.20307821495945078], [0.5765205738961879, -0.5023614623301677, 1.4087559023495368, -0.7385111225502098, -1.7644939644118998, -0.13288536867711118, 0.2546462904380562, -0.8833160893828027, 1.0053937476025698, -1.9692772083797072], [-0.31657979303038364, -0.3310837679994451, 0.42448273142168474, 0.5163215612149226, -0.4061122068039494, 1.6860496174662938, -1.3512885139895037, -0.533536680248586, 0.1395179610547135, 1.0200670538465788], [-2.823865772746362, 1.270592556537949, 0.5825933972374204, -1.3888612188474296, 0.9381175799814959, -0.33250781606989105, -0.6525347637381648, 2.3355547171978213, 1.1673961180960566, 0.06728636538453958], [-0.20869663500008007, 0.9247515054480964, -0.6659224592217495, 0.5409942482192875, 0.27168203708633315, 0.5624177850650063, -0.7293410091648632, -0.032938547369544185, 2.2953272644094582, 0.560101703248025], [0.006003781267777128, 0.7427326089720767, -0.5085489088211151, -1.180484674876405, 0.6764394323345716, -0.4648564274514313, 0.506709085794597, 1.164988160203091, -1.0695575419413654, 0.347877522897309], [0.37811795764670525, 1.2946343446640494, 0.8808053072676111, -0.1781457503380381, -0.41538364121056065, -0.24734930140931843, -0.04382207033284268, 0.862659715338721, -1.689595911798849, 0.04591086164791551], [-0.7271529185516126, -2.905845035799499, 2.1548275388480844, -0.5103204860071003, 1.468521631824422, 0.7337559655982387, -1.1679360306390851, -0.1537895076325522, -0.6847688917297576, 0.16973803242154192], [-0.23322015906052482, -1.920019077268803, -1.6876325764282765, 0.22875080834089, -0.24582758367746194, -1.3139719432801926, -0.11575541929795097, -0.018294434121297706, -0.8594250950637818, 1.1147217002150518], [-0.18337595589292213, -0.4086184638204684, -0.6578055653114027, -2.5069606416153283, -0.03992206656339584, -0.4438875378798113, -0.43588181480477345, -0.4598197087967442, 0.04647252852152127, 0.26195473163358013], [-0.7415402901529219, 1.2995999101056943, 0.05270514943770062, 0.08386120632836003, -0.7698060541015718, -0.5939368857917777, -0.025971592162087907, -2.101319973663061, -0.10677525881200803, 0.4377709778271464], [-0.19285027228396023, -0.8425152727061564, -2.4775837437363357, 0.3042688879882226, 1.0164108356365267, 0.6574895916325506, 0.2850498082395836, -0.3761341309338976, 2.292004740419911, 0.22118401069255228], [0.6086108708980862, -0.8253645874028122, -0.5251431434865897, 1.1492693123088789, 0.2544553985008954, 1.1738935609777692, 1.3847881353475981, 2.8919523925635087, -1.0590832273146868, 0.48129365930438267], [-0.0347952729226501, -0.6870697779887394, 1.5469587379661294, 0.9915013179580621, -0.058200228687181284, 0.0674292096709356, -0.6799105477073285, 1.1115940439412957, 0.6921092503324174, 0.4977180273554865], [2.2687324546046255, -0.09054620591111338, -0.1874715557738334, 1.3254229896620213, 0.3461956954969834, -0.6205641795793027, -1.8756388277250664, -0.8516504908652004, -1.2033371631684093, -0.39867848340938344], [-0.7012381790119733, 0.04397658934839426, -1.0708541071911037, -0.7861284953966753, 0.18172391564291587, -1.2653620745602412, -0.5709907773552354, -0.9029990694438911, 0.630796414525223, -1.5792425605371214], [0.057994043494936996, 0.05361707167998605, -1.811694714125233, -0.7404598159537137, 0.08955870169992837, -0.4555733010714638, 0.36287219013941185, -0.0355483938556375, -0.06421110142604891, -0.11396903764345719], [-0.6601521843138651, 0.21357313106137146, -1.5408493720690433, -0.5514974285706735, -0.20129814823604125, 0.17104965993115223, -0.8806869690641418, -0.323049359287104, 0.5820723529213012, -0.9627285693295748], [1.8842747499234034, 0.023903127807666666, -1.6883947151604568, -0.9946408532364044, -0.2239672216370503, 1.3239022621159249, -1.06243062861953, 0.9161249231216029, 0.41881699440931697, -1.0585856934378437], [0.9271065556140393, -0.768458315214549, -0.6040098640208444, -0.110026880465066, -0.7820909491799382, 0.2883641133321997, 0.8954584778840345, -0.6927974499960217, -1.7575770583848627, -0.040486422920768296], [1.7807439698352867, -0.9900988814319672, -0.4005864811456606, -0.7934494651784183, 0.9183111458335929, -0.9740282428929247, -0.27416961665290546, 1.676552206222882, 0.14918939240406925, 0.18862000599036619], [0.4501616053802812, -0.9659592773153499, -0.2554739012417163, 0.2337951528554117, -1.3848919295277096, 1.0195738984600071, -0.19266948786495866, -1.0630492293263105, 0.04054903290937544, 0.5325659310349068], [0.3888452987018448, -0.15974717660235144, 1.7731660773169335, 1.083428198900616, 0.9222375262482271, -1.0708426912113367, -0.11950196822420586, 0.283953834517708, -0.31866320522877895, -0.29910539571215555], [0.15402245259424308, 0.8267088608880241, 0.9998216571206476, 1.4964733298374913, -0.5088258706513025, -0.16777872015688808, 1.7909229437876852, -0.32177522853461255, 1.1236182975776337, 0.8624874593232111], [-0.1212926228775599, 0.709352314067676, -0.80837218992165, -0.5022228611551933, 0.11365035592283551, -1.7889626425385432, 0.1174619589879575, -0.30576547502065965, -0.7551920056953679, -0.8245584540742422], [0.8088556283916438, 0.5472491003042437, -0.20327919748869422, 0.16200020955980532, -0.2426186623829192, 0.5736649368586243, -1.6746811626989568, -0.27464367554706376, 0.43325594806895057, -0.9451016133960588], [-0.7230341309051149, -1.8602087991029683, 1.0950209408751654, -1.5058942861370646, 1.6792804001441057, -0.8853986014899494, -0.5887495965352777, 0.33626469585747903, -0.9600832418505415, 0.10145344078049645], [1.9078455790082949, 0.15431521576646032, -0.4163209972491269, 1.5977563425389203, -0.11127981405034618, -1.5477505538599612, 0.4308754296231417, 0.4294680269242369, -0.8524921814678408, -0.6796043170092341], [-0.5035193643549487, 0.6345680056464151, -1.6259198157459644, 1.781974250342806, -0.5053632364179215, 1.387024722996067, -0.08793530796401998, -0.38583805038117025, -0.18651051644049998, -0.3354656989509754], [1.073691317977295, 0.8686694721943411, -0.38565354611983327, 0.8536418255031668, 0.7870048559775864, 0.487317870341929, 0.23669661895735822, 0.716078791176843, -0.051660215026544054, 0.7653273519600585], [-0.018287002694612826, 0.3431359092971249, -0.44376175845862403, -0.1629299796618974, -0.8648896555247715, 2.3707187198961743, -1.0935144937930596, 0.05248800046496301, 0.307859790898254, 1.4979591836112176], [0.8575994065331751, 0.09724901371147866, -0.13299294720462235, 1.773423940945901, -0.5518842105839165, 1.3952032930034577, 1.250046468333758, -0.45471776009550874, -0.9501479686438833, -0.3639530484474485], [-1.2828531654050193, -1.0422099889598218, -1.2401478023094699, 0.2646271342420702, 0.42905024574915024, -0.8598762884407993, 0.9540858999893063, 0.38737399810171164, -1.115976567496702, -0.8148001923700463], [0.39095469975740643, 0.10734812493565772, 0.5526711117924284, 0.532833680087197, -1.897764566923593, -0.3554705065779559, -2.0867930164648336, 0.022816386702448472, -1.3155830538932283, -0.16380954539650364], [0.9953738048436027, -0.7050778426746586, -0.0895617860666791, 0.3636893670015775, -0.8424416295759445, -1.4049290937321435, 0.3788273199177986, -0.7852949253063604, 0.39123041882850523, -1.3085227012578342], [-1.2436602346698395, -0.31465730061058556, 1.8387955206682614, -0.042928148352531226, 0.5085999642830337, -0.5355545121311882, -0.14472394658724674, -0.7229048266246078, 1.2555403934472766, 0.13885827552154495], [0.2960621734077328, 0.5653987630600827, 1.119278322876313, -0.9550282574589162, -1.678515423521813, 0.7430565910090322, -0.1932219192876318, -0.8864047227396438, 0.6761281950318628, 0.7718157841910176], [-0.075861610159231, 0.9978146471580802, 0.22406955631035358, -1.1582689221112412, 2.4228290337362037, -0.6159139724124667, 0.13167560080508928, 0.563937373385612, -1.5104420978010926, 0.7404728727854276], [-0.5367408377055524, -1.7058055143559754, 0.49389089503925476, -0.42100827418830383, 0.5659597750050983, -0.1631552588707306, -2.128922676819165, 0.1947603757402917, -0.570742301521333, -1.1007580951587552], [-1.1917284124078602, -1.1965535850686784, -0.701254798800728, 0.18649374651478046, 1.158739878309003, 0.7639771235782097, 1.7263897198258324, -0.029258494365704338, -0.05532383061771834, 0.3625363391332102], [0.5059461124752614, 1.6517506134002593, 0.5421405118173283, -0.7946371288563211, 0.6167878911014625, 0.5969882832528862, 1.2089790435284602, 0.16737078969829805, -0.08565960625694168, -1.6498659585029103], [1.0421656120183358, -1.3141001580120226, -0.17310196003582135, -0.44900153620673605, 0.8552185282704495, -1.991079490629631, -1.1212599219044435, -1.0614509592572128, -0.12237717131131975, 0.09346339487352852], [-0.24448747186238773, -0.2525440191689179, 0.12796366551717356, -0.0075680338831128615, -1.5183661507786304, -0.12870130992481765, 0.5212301570794822, -1.1180185570981216, -0.6748139764679492, -0.7582666860506379], [0.7653003170090774, 0.21420843855071917, 0.6896539952159607, 0.5866788500287312, -0.9647513071790111, -1.159884696278511, -0.11140325082289804, 0.4519972665912558, -2.6759297541168925, 1.197954114285752], [-1.597680471731026, -0.6008442139789661, 0.23673511264943423, 0.8532432708460492, -0.4499245360572764, -0.1977465882353883, 1.7802882755433644, -2.2823452552529395, 1.3355825110122124, -0.15041575544047334], [0.31945950323786154, -0.03179460401005263, 0.6502789116922145, -0.5182177805204505, 0.6284779794936154, 0.22190992480985303, 1.4131023158527416, 0.5108383710010397, -0.6349211875721442, -0.9737281521043818], [1.0820451007767073, 0.33221486403859557, -1.3783379399362574, -1.5390914269019083, 0.11822636166509717, -0.5664609885850238, 0.4131883580732622, 0.41141809377222455, 0.0913710519168413, 0.4056009220675151], [1.6226293426985805, -0.8491000152470581, -1.638413982051837, -0.8656808792259474, -1.6738391341035204, -0.37172362750120247, 1.2171055299062783, 0.8398108292898967, 0.111380249891453, 1.1586457129429355], [0.06384446096995282, 1.0469686553491762, -0.6120137550744644, -1.124170208299329, -0.6964822194024881, -1.1297843850221012, 0.0992899580996102, 0.8173722780508133, -0.15781431555670156, 1.0764785084754296], [-0.6534504364426981, -0.18011089065720046, -1.8006667016213507, -1.0988596875365693, -1.3865639663432205, -0.44773792247710675, 0.8470508146068667, -0.07764514227730117, 0.3969883619101415, 0.5480129958780448], [-0.5803400990632203, -2.155822106551168, -0.2737890822199813, 0.209107121355142, 1.0955602642323614, 0.06105349882605912, 0.6018138205988391, -0.06254656180352774, -0.19956430392978547, -0.5781506980034059], [-1.1197722799466479, 1.0667805520121767, -0.8435133786882002, -0.3993554677949276, -0.25438493500406256, 0.6355442719658585, 1.788993499850743, 0.7781866929214001, -0.767540924314586, 0.4486928131609846], [0.12488900836440668, 1.6296304124033056, -1.065662338697846, 1.8173637730269243, -1.8616941870045818, 1.2101091325575906, -1.5668623729141384, 0.6432260491794061, -0.34184066870771923, 0.419471500116882], [-0.03236583058452623, -0.3253417439377174, -0.8266835213866475, -1.988275666114879, 2.3567224286055373, 1.6076956299644227, -0.9064248331409791, -0.6148210361088646, 1.7010851172464612, -0.6312005748015397], [0.8658399451262997, -0.09300128142624926, 0.9977768566908154, -0.8205682434715634, 0.8121244934710933, -0.8649473244981867, -0.9688842629949385, 2.0837833466391262, -0.36760193073917746, -0.7766107405886186], [0.395202135475529, -0.4290903496110278, -0.34131016514745277, 0.5989134306644751, 0.5635120608857511, 1.7376824543239988, -1.3782076915676416, -0.05538039927995603, -0.8269171129012496, 0.5634154341522069], [1.257742971167766, -0.08543908736068402, -1.0934841438397322, 0.7946232875180267, 0.7228030285942798, -0.10991717807864557, 0.04965570076441616, -3.287246991202005, -0.17209051141150208, 0.8840991717843458], [-2.2651918262913036, -0.9919608401628526, 1.1263422623984238, -0.7688426190817929, -0.239567815380524, 1.7596293623677415, -0.5086027991962672, -0.5253823462769676, 0.08263359602267618, -0.3038988227850157], [-0.18296950224736924, 0.2274485210512627, -0.2236737431766893, 0.30465003039946115, -0.721691413943322, -0.9822642053001923, 1.160358442483471, -1.411321199301474, -0.5003356171983077, -0.6218651474008317], [-1.7880443136228539, 0.15297266916748758, -0.3272305061451754, 0.1167120716735717, -0.44684252150177955, 1.2775740279856067, -0.7537476944814265, -0.398978746174705, 0.42537331811896495, -0.8772602646618042], [0.7740526407845929, -0.8181189658916224, 0.43273702299149, -1.189062333484966, -0.12961649534173142, 0.8367480831179548, 0.2989315853815989, -0.29689506699559276, 0.3246180412503855, -0.9147321574070684], [-0.5777391474812328, -0.361981598789959, 0.3218130858000978, -0.09708947383569572, 1.0751752683157907, 0.02126994091609116, 0.03129913218998548, -0.032195106931681886, -1.2468036729557217, -0.906193425277662], [0.1073912249079888, 0.2499918161378762, -0.36782969944362426, 1.14877878394286, -0.9034647298384799, 0.44819126828123057, -0.7591458515047524, -1.1162074901716403, -1.4747879034896372, -0.09694136985698139], [-0.9310700140391637, -2.6005153736607127, 1.8042527872506842, -2.7516260454815558, 1.958495924288443, 0.13551877778149493, -0.3366380588588577, -1.1024578506343803, -2.0482263270290963, -0.22458624412840125], [1.3930118953173771, 0.294768921303568, -1.416095549334889, -0.3127821140360955, 0.38585029171840085, -0.15877157785315385, -0.3842441457311661, 0.594887493177432, 1.3361358646937622, -0.0222528969367963], [-1.234107589046204, 0.16359816595952276, -1.3624288449301132, 0.940092403448949, 1.0699508115838892, -0.06141355304418321, -1.5680590222868225, 0.09825262345258326, 0.34405351076989305, 0.8186393466518045], [-0.06018982475774374, 1.264574450292722, -2.113800010296278, 1.1136199046785207, 0.8732515153144562, -0.11498937561977074, -0.10907133294057944, 1.3943862993736424, -1.3270799185223858, 0.1662574424670164], [-0.09131156411046255, -1.2934074593699674, -0.18258194289836036, 0.08447616314117097, 0.7764521369064726, 0.13454258150997295, -0.021025112193816704, 0.13954945666836763, -2.140641159374612, 0.7237041933937277], [0.11793657388971641, 1.188273785926672, 1.3123369223657928, 1.3299282417346339, 1.8340738091008297, 0.01890333838924774, 1.122533997140296, 0.4818079484814692, -0.32530409716870773, 0.6342264697161325], [-0.7598500340931684, 0.15670388976709226, 0.2290534271433702, -0.6532817182891432, -0.09114351139753861, -0.1514379156220791, 2.1683765483348556, 1.762117569817555, -0.13900009943798425, -1.605992525462478], [-2.13600227469664, -0.19965452017265972, 0.4049670940831501, -0.3985866197303672, -1.273155980087503, 0.6531577213442642, 0.18338807217927755, 1.1021970451521388, 1.40990932746045, -0.5582843283504929], [0.602887340966237, -0.5031917738218002, -0.7577530164307235, -0.8529848921563967, -0.5032777515520782, -0.035762203736965766, -0.9522900431780191, -1.191758796624664, -0.08573832760378015, -0.498588787157739], [0.8884600343465773, -0.4401163800313922, 0.12036931466284612, -0.9459183466613901, -0.328904703231984, -2.3294019132789994, -1.686691652558545, 1.4422745108527502, 0.8070724565831601, -0.012905994944055692], [-1.6560741874195632, -1.2966942796303709, -1.1873424435040456, -0.38776616267690295, 0.09466920835650791, 0.18641897627054976, 1.4279429185388386, -0.27141262614562095, 0.3762122507625395, -0.7551138452870614], [-0.11111032852236424, -0.8828381205985638, -0.6147471553499239, -1.097086032912083, 0.544656864771178, -0.5321281569296781, 0.32439776546148835, 0.7532306680976899, -0.5471761375641193, -1.5256749947002661], [0.02900520447511853, -1.2487094547238518, 0.3215201493378357, 0.059033106377709144, 1.2386825130127614, 1.2668195320335875, -0.32450537786967604, -0.9785551097050086, -2.402862285218235, 1.504132555785845], [1.0073162420647974, 1.7996323075405547, -0.32289625195524313, 0.8534817679171479, -0.8616896319933169, 0.8949160785606417, -2.174557798783224, -0.04898464814457767, 1.375466220533191, 0.8100597370084569], [0.46824161238239104, -0.20128420508431905, 1.8408865643796, 0.4608531811671863, 1.3485042402506058, 0.4310608943893761, -0.9432889663199078, 0.3284236378534138, -0.6642384211798565, -1.4112952539646018], [0.3452660038473935, -0.1695603666231119, -0.5065428713170481, 1.6269050729738461, 0.6673576956588467, 1.5250514369058334, 0.6025799466606536, -0.6789493588217653, 0.9717879056778844, -0.2691813413831073], [-2.3400322640921716, 0.2944854405508678, 0.3210799706990211, 1.3029784714228483, 0.8256890239402721, -0.29364582490650903, 1.5569700874895507, 0.7549706526264739, 0.295015573047712, -0.4391155350078337], [-2.33432989324575, -1.155178861296796, 0.5701195069639674, -1.0444899002065624, -2.175980371717728, 1.580617114766377, -0.938454933513, 0.9541124605059688, -0.15164321736397166, 1.5290048664146376], [-0.7872005233049992, 0.24312019021346354, 0.19048419888920284, 0.7575104418294644, -1.5911177520688717, -1.4566133921637425, -1.2511302603301526, 0.11326629213816915, -0.4154039535846871, 0.6245600541673668], [2.169393415888711, -0.6163698907997411, -1.9911182053565617, 0.902592440210606, 1.3857774587578962, 0.06960516358661675, 1.0320609321752465, 0.614707665719013, -0.7268430074545951, -0.20084107231429002], [-0.16903018432893613, -0.7835616886307063, -0.520854105085039, -1.0390472907343629, -1.197100501259465, -0.6103033787318748, -0.2304514771542703, 0.08241443304384695, -1.1959698096148832, 0.12735298231483358], [0.9794626576160158, 0.7543137636395751, 0.13623021898431414, 0.40752551172183255, -0.5238090119994039, -0.06687901391555, 0.7393973001503572, -0.4521703888077844, -0.013454133066538997, -0.004749081099633981], [-0.8372871944409749, -0.22891810798225787, 1.6626601753206054, 0.3167955369064429, -0.5571267961810715, -0.34612153232211823, 1.2288776561801233, 0.6186428939930523, -1.3013438629551826, -0.6973509052712322], [-0.7862185943188739, 0.706273058383609, 0.8642376012548852, 0.6050348028559652, 0.6313748143523183, 0.9835655781379763, 0.5283173846506808, -1.0698697219756974, -1.3948227681748173, 0.21645715706796578], [2.0519627489068752, 1.4543731889822737, -0.604826650622713, -0.7831969432654818, 0.9304276342826003, -0.6953749701918319, 0.24325019907077028, -0.43848490799920903, -0.17536000078622294, -0.5515185880807089], [-1.0441160555360602, -1.003988977107657, -0.016672431446551887, -0.20582179777784884, -0.575450376472938, -0.7693314918321739, 0.3051354293417937, -0.6748405946120413, -0.5236868344588299, -0.19618042535969027], [-0.9963772160968352, -1.7372206439914295, 0.45427098367048563, 0.7167386738049126, 0.11550310089276855, -1.0290645994252128, 0.2015171723263466, -0.06477459114984592, 0.09906897822126348, -0.8542679684943872], [-1.1707295901330728, 0.4861777730889532, 0.38959769486989765, 0.014288893372968856, -0.7917277164031314, -0.31814481719350984, 1.0363099212878168, 0.10115427239381561, 0.0546292307551987, -0.7994921084057839], [-0.052101498660971024, -0.17866073503612698, -0.5930160393050041, 0.7208477292897632, 1.5639193040380879, -0.7798851833806639, 0.9904772909689584, -0.18079237636702403, -0.6236881833080503, -0.40158970519135573], [-1.0327289834152982, 0.5935810762921506, -0.6142368846149906, -0.6333909827545672, -0.4322553597892526, -0.3710442809191876, -1.1665667750239, 0.4544373736987218, 0.4380181490409201, 0.164978738928164], [0.6178749186637922, -1.2798379079959, 0.26302646574215677, 0.10791397374564216, 0.48803628813292527, 1.3389565524575702, 0.9330323330980093, -0.7120142056102136, -1.4403631903162677, -0.6010478437339143], [0.13504022202213986, 0.9205622038823219, 0.2928356031797012, 1.330905983941892, 